digraph Tree {
node [shape=box, style="filled, rounded", color="black", fontname="MicrosoftYaHei"] ;
edge [fontname="MicrosoftYaHei"] ;
0 [label="工作经验要求_10年以上 <= 0.5\nsquared_error = 0.0\nsamples = 648\nvalue = 2.41", fillcolor="#f2c09c"] ;
1 [label="工作经验要求_5-7年 <= 0.5\nsquared_error = 0.0\nsamples = 604\nvalue = 2.409", fillcolor="#f3c3a0"] ;
0 -> 1 [labeldistance=2.5, labelangle=45, headlabel="True"] ;
2 [label="工作经验要求_8-9年 <= 0.5\nsquared_error = 0.0\nsamples = 439\nvalue = 2.407", fillcolor="#f4c8a8"] ;
1 -> 2 ;
3 [label="工作经验要求_3-4年 <= 0.5\nsquared_error = 0.0\nsamples = 417\nvalue = 2.406", fillcolor="#f4c9ab"] ;
2 -> 3 ;
4 [label="学历要求_大专 <= 0.5\nsquared_error = 0.0\nsamples = 242\nvalue = 2.403", fillcolor="#f5cfb3"] ;
3 -> 4 ;
5 [label="地区_二线 <= 0.5\nsquared_error = 0.0\nsamples = 155\nvalue = 2.405", fillcolor="#f4cbad"] ;
4 -> 5 ;
6 [label="公司标签_餐饮业 <= 0.5\nsquared_error = 0.0\nsamples = 114\nvalue = 2.407", fillcolor="#f3c7a7"] ;
5 -> 6 ;
7 [label="公司标签_物业管理/商业中心 <= 0.5\nsquared_error = 0.0\nsamples = 111\nvalue = 2.408", fillcolor="#f3c6a5"] ;
6 -> 7 ;
8 [label="地区_一线 <= 0.5\nsquared_error = 0.0\nsamples = 103\nvalue = 2.407", fillcolor="#f3c7a7"] ;
7 -> 8 ;
9 [label="公司标签_快速消费品(食品、饮料、化妆品) <= 0.5\nsquared_error = 0.0\nsamples = 60\nvalue = 2.405", fillcolor="#f4ccaf"] ;
8 -> 9 ;
10 [label="公司标签_原材料和加工 <= 0.5\nsquared_error = 0.0\nsamples = 58\nvalue = 2.405", fillcolor="#f4cbad"] ;
9 -> 10 ;
11 [label="公司标签_电子技术/半导体/集成电路 <= 0.5\nsquared_error = 0.0\nsamples = 56\nvalue = 2.405", fillcolor="#f4caac"] ;
10 -> 11 ;
12 [label="公司标签_金融/投资/证券 <= 0.5\nsquared_error = 0.0\nsamples = 55\nvalue = 2.406", fillcolor="#f4caab"] ;
11 -> 12 ;
13 [label="公司标签_计算机软件 <= 0.5\nsquared_error = 0.0\nsamples = 53\nvalue = 2.405", fillcolor="#f4caac"] ;
12 -> 13 ;
14 [label="公司类型_事业单位 <= 0.5\nsquared_error = 0.0\nsamples = 52\nvalue = 2.405", fillcolor="#f4cbad"] ;
13 -> 14 ;
15 [label="公司规模_50-150人 <= 0.5\nsquared_error = 0.0\nsamples = 49\nvalue = 2.404", fillcolor="#f5ccaf"] ;
14 -> 15 ;
16 [label="公司标签_医疗/护理/卫生 <= 0.5\nsquared_error = 0.0\nsamples = 43\nvalue = 2.404", fillcolor="#f5ceb2"] ;
15 -> 16 ;
17 [label="公司类型_民营 <= 0.5\nsquared_error = 0.0\nsamples = 41\nvalue = 2.403", fillcolor="#f5cfb3"] ;
16 -> 17 ;
18 [label="公司标签_通信/电信/网络设备 <= 0.5\nsquared_error = 0.0\nsamples = 24\nvalue = 2.405", fillcolor="#f4caac"] ;
17 -> 18 ;
19 [label="公司类型_国企 <= 0.5\nsquared_error = 0.0\nsamples = 23\nvalue = 2.405", fillcolor="#f4cbad"] ;
18 -> 19 ;
20 [label="公司标签_制药/生物工程 <= 0.5\nsquared_error = 0.0\nsamples = 17\nvalue = 2.406", fillcolor="#f4c8a9"] ;
19 -> 20 ;
21 [label="公司类型_合资 <= 0.5\nsquared_error = 0.0\nsamples = 15\nvalue = 2.405", fillcolor="#f4cbad"] ;
20 -> 21 ;
22 [label="公司标签_新能源 <= 0.5\nsquared_error = 0.0\nsamples = 14\nvalue = 2.404", fillcolor="#f5ccb0"] ;
21 -> 22 ;
23 [label="学历要求_本科 <= 0.5\nsquared_error = 0.0\nsamples = 13\nvalue = 2.405", fillcolor="#f4ccae"] ;
22 -> 23 ;
24 [label="squared_error = 0.0\nsamples = 1\nvalue = 2.401", fillcolor="#f6d3ba"] ;
23 -> 24 ;
25 [label="公司标签_农/林/牧/渔 <= 0.5\nsquared_error = 0.0\nsamples = 12\nvalue = 2.405", fillcolor="#f4cbad"] ;
23 -> 25 ;
26 [label="公司规模_500-1000人 <= 0.5\nsquared_error = 0.0\nsamples = 3\nvalue = 2.408", fillcolor="#f3c6a5"] ;
25 -> 26 ;
27 [label="工作经验要求_2年 <= 0.5\nsquared_error = 0.0\nsamples = 2\nvalue = 2.406", fillcolor="#f4c8a9"] ;
26 -> 27 ;
28 [label="squared_error = 0.0\nsamples = 1\nvalue = 2.407", fillcolor="#f3c6a6"] ;
27 -> 28 ;
29 [label="squared_error = -0.0\nsamples = 1\nvalue = 2.406", fillcolor="#f4caab"] ;
27 -> 29 ;
30 [label="squared_error = 0.0\nsamples = 1\nvalue = 2.41", fillcolor="#f2c19d"] ;
26 -> 30 ;
31 [label="工作经验要求_2年 <= 0.5\nsquared_error = 0.0\nsamples = 9\nvalue = 2.404", fillcolor="#f5cdb0"] ;
25 -> 31 ;
32 [label="工作经验要求_1年 <= 0.5\nsquared_error = 0.0\nsamples = 7\nvalue = 2.405", fillcolor="#f4ccae"] ;
31 -> 32 ;
33 [label="squared_error = 0.0\nsamples = 6\nvalue = 2.405", fillcolor="#f4cbad"] ;
32 -> 33 ;
34 [label="squared_error = 0.0\nsamples = 1\nvalue = 2.402", fillcolor="#f6d1b7"] ;
32 -> 34 ;
35 [label="squared_error = -0.0\nsamples = 2\nvalue = 2.402", fillcolor="#f6d1b7"] ;
31 -> 35 ;
36 [label="squared_error = 0.0\nsamples = 1\nvalue = 2.4", fillcolor="#f6d5be"] ;
22 -> 36 ;
37 [label="squared_error = -0.0\nsamples = 1\nvalue = 2.415", fillcolor="#f0b78e"] ;
21 -> 37 ;
38 [label="squared_error = -0.0\nsamples = 2\nvalue = 2.416", fillcolor="#efb488"] ;
20 -> 38 ;
39 [label="公司标签_机械/设备/重工 <= 0.5\nsquared_error = 0.0\nsamples = 6\nvalue = 2.401", fillcolor="#f6d2b9"] ;
19 -> 39 ;
40 [label="公司规模_5000-10000人 <= 0.5\nsquared_error = 0.0\nsamples = 5\nvalue = 2.401", fillcolor="#f6d4bc"] ;
39 -> 40 ;
41 [label="公司标签_制药/生物工程 <= 0.5\nsquared_error = 0.0\nsamples = 4\nvalue = 2.399", fillcolor="#f7d7c0"] ;
40 -> 41 ;
42 [label="公司规模_500-1000人 <= 0.5\nsquared_error = 0.0\nsamples = 3\nvalue = 2.4", fillcolor="#f6d6be"] ;
41 -> 42 ;
43 [label="squared_error = 0.0\nsamples = 2\nvalue = 2.4", fillcolor="#f6d6be"] ;
42 -> 43 ;
44 [label="squared_error = -0.0\nsamples = 1\nvalue = 2.4", fillcolor="#f6d5be"] ;
42 -> 44 ;
45 [label="squared_error = 0.0\nsamples = 1\nvalue = 2.398", fillcolor="#f7dac5"] ;
41 -> 45 ;
46 [label="squared_error = -0.0\nsamples = 1\nvalue = 2.406", fillcolor="#f4caab"] ;
40 -> 46 ;
47 [label="squared_error = -0.0\nsamples = 1\nvalue = 2.406", fillcolor="#f4caab"] ;
39 -> 47 ;
48 [label="squared_error = -0.0\nsamples = 1\nvalue = 2.415", fillcolor="#f0b78e"] ;
18 -> 48 ;
49 [label="公司标签_农/林/牧/渔 <= 0.5\nsquared_error = 0.0\nsamples = 17\nvalue = 2.4", fillcolor="#f7d6be"] ;
17 -> 49 ;
50 [label="公司标签_制药/生物工程 <= 0.5\nsquared_error = 0.0\nsamples = 16\nvalue = 2.401", fillcolor="#f6d4bb"] ;
49 -> 50 ;
51 [label="公司规模_5000-10000人 <= 0.5\nsquared_error = 0.0\nsamples = 12\nvalue = 2.403", fillcolor="#f5d0b5"] ;
50 -> 51 ;
52 [label="公司规模_150-500人 <= 0.5\nsquared_error = 0.0\nsamples = 11\nvalue = 2.403", fillcolor="#f5cfb4"] ;
51 -> 52 ;
53 [label="工作经验要求_1年 <= 0.5\nsquared_error = 0.0\nsamples = 9\nvalue = 2.402", fillcolor="#f5d0b5"] ;
52 -> 53 ;
54 [label="公司规模_1000-5000人 <= 0.5\nsquared_error = 0.0\nsamples = 3\nvalue = 2.4", fillcolor="#f6d5bd"] ;
53 -> 54 ;
55 [label="squared_error = -0.0\nsamples = 2\nvalue = 2.4", fillcolor="#f6d5be"] ;
54 -> 55 ;
56 [label="squared_error = 0.0\nsamples = 1\nvalue = 2.401", fillcolor="#f6d3ba"] ;
54 -> 56 ;
57 [label="公司规模_1000-5000人 <= 0.5\nsquared_error = 0.0\nsamples = 6\nvalue = 2.404", fillcolor="#f5ceb2"] ;
53 -> 57 ;
58 [label="公司标签_新能源 <= 0.5\nsquared_error = 0.0\nsamples = 5\nvalue = 2.403", fillcolor="#f5cfb4"] ;
57 -> 58 ;
59 [label="公司标签_仪器仪表/工业自动化 <= 0.5\nsquared_error = 0.0\nsamples = 4\nvalue = 2.402", fillcolor="#f6d1b7"] ;
58 -> 59 ;
60 [label="squared_error = 0.0\nsamples = 3\nvalue = 2.403", fillcolor="#f5d0b5"] ;
59 -> 60 ;
61 [label="squared_error = 0.0\nsamples = 1\nvalue = 2.4", fillcolor="#f6d5be"] ;
59 -> 61 ;
62 [label="squared_error = -0.0\nsamples = 1\nvalue = 2.406", fillcolor="#f4c8a9"] ;
58 -> 62 ;
63 [label="squared_error = 0.0\nsamples = 1\nvalue = 2.407", fillcolor="#f3c6a6"] ;
57 -> 63 ;
64 [label="公司标签_机械/设备/重工 <= 0.5\nsquared_error = 0.0\nsamples = 2\nvalue = 2.405", fillcolor="#f4caac"] ;
52 -> 64 ;
65 [label="squared_error = 0.0\nsamples = 1\nvalue = 2.402", fillcolor="#f6d1b7"] ;
64 -> 65 ;
66 [label="squared_error = 0.0\nsamples = 1\nvalue = 2.409", fillcolor="#f3c3a1"] ;
64 -> 66 ;
67 [label="squared_error = -0.0\nsamples = 1\nvalue = 2.398", fillcolor="#f7dac5"] ;
51 -> 67 ;
68 [label="公司规模_500-1000人 <= 0.5\nsquared_error = 0.0\nsamples = 4\nvalue = 2.395", fillcolor="#f8dfcd"] ;
50 -> 68 ;
69 [label="工作经验要求_1年 <= 0.5\nsquared_error = 0.0\nsamples = 2\nvalue = 2.391", fillcolor="#fae7da"] ;
68 -> 69 ;
70 [label="squared_error = 0.0\nsamples = 1\nvalue = 2.392", fillcolor="#fae6d7"] ;
69 -> 70 ;
71 [label="squared_error = 0.0\nsamples = 1\nvalue = 2.39", fillcolor="#fbe9dd"] ;
69 -> 71 ;
72 [label="工作经验要求_2年 <= 0.5\nsquared_error = 0.0\nsamples = 2\nvalue = 2.399", fillcolor="#f7d7c0"] ;
68 -> 72 ;
73 [label="squared_error = 0.0\nsamples = 1\nvalue = 2.406", fillcolor="#f4c8a9"] ;
72 -> 73 ;
74 [label="squared_error = 0.0\nsamples = 1\nvalue = 2.392", fillcolor="#fae6d7"] ;
72 -> 74 ;
75 [label="squared_error = -0.0\nsamples = 1\nvalue = 2.385", fillcolor="#fdf5ef"] ;
49 -> 75 ;
76 [label="公司类型_国企 <= 0.5\nsquared_error = 0.0\nsamples = 2\nvalue = 2.414", fillcolor="#f1b991"] ;
16 -> 76 ;
77 [label="squared_error = 0.0\nsamples = 1\nvalue = 2.423", fillcolor="#eca572"] ;
76 -> 77 ;
78 [label="squared_error = 0.0\nsamples = 1\nvalue = 2.404", fillcolor="#f5cdb1"] ;
76 -> 78 ;
79 [label="公司标签_石油/化工/矿产/地质 <= 0.5\nsquared_error = 0.0\nsamples = 6\nvalue = 2.411", fillcolor="#f2bf9b"] ;
15 -> 79 ;
80 [label="公司标签_建筑/建材/工程 <= 0.5\nsquared_error = 0.0\nsamples = 5\nvalue = 2.408", fillcolor="#f3c4a3"] ;
79 -> 80 ;
81 [label="工作经验要求_2年 <= 0.5\nsquared_error = 0.0\nsamples = 4\nvalue = 2.406", fillcolor="#f4c8a9"] ;
80 -> 81 ;
82 [label="squared_error = 0.0\nsamples = 1\nvalue = 2.404", fillcolor="#f5cdb1"] ;
81 -> 82 ;
83 [label="squared_error = 0.0\nsamples = 3\nvalue = 2.407", fillcolor="#f3c7a7"] ;
81 -> 83 ;
84 [label="squared_error = -0.0\nsamples = 1\nvalue = 2.416", fillcolor="#efb488"] ;
80 -> 84 ;
85 [label="squared_error = -0.0\nsamples = 1\nvalue = 2.423", fillcolor="#eca572"] ;
79 -> 85 ;
86 [label="公司规模_150-500人 <= 0.5\nsquared_error = 0.0\nsamples = 3\nvalue = 2.414", fillcolor="#f1b991"] ;
14 -> 86 ;
87 [label="squared_error = 0.0\nsamples = 1\nvalue = 2.409", fillcolor="#f3c3a1"] ;
86 -> 87 ;
88 [label="squared_error = 0.0\nsamples = 2\nvalue = 2.416", fillcolor="#efb488"] ;
86 -> 88 ;
89 [label="squared_error = 0.0\nsamples = 1\nvalue = 2.421", fillcolor="#edaa7a"] ;
13 -> 89 ;
90 [label="学历要求_硕士 <= 0.5\nsquared_error = 0.0\nsamples = 2\nvalue = 2.417", fillcolor="#efb387"] ;
12 -> 90 ;
91 [label="squared_error = 0.0\nsamples = 1\nvalue = 2.422", fillcolor="#eda876"] ;
90 -> 91 ;
92 [label="squared_error = -0.0\nsamples = 1\nvalue = 2.411", fillcolor="#f2be99"] ;
90 -> 92 ;
93 [label="squared_error = -0.0\nsamples = 1\nvalue = 2.389", fillcolor="#fbede3"] ;
11 -> 93 ;
94 [label="公司规模_10000人以上 <= 0.5\nsquared_error = 0.0\nsamples = 2\nvalue = 2.392", fillcolor="#fae6d7"] ;
10 -> 94 ;
95 [label="squared_error = 0.0\nsamples = 1\nvalue = 2.392", fillcolor="#fae6d7"] ;
94 -> 95 ;
96 [label="squared_error = 0.0\nsamples = 1\nvalue = 2.392", fillcolor="#fae6d7"] ;
94 -> 96 ;
97 [label="公司规模_500-1000人 <= 0.5\nsquared_error = 0.0\nsamples = 2\nvalue = 2.391", fillcolor="#fae8da"] ;
9 -> 97 ;
98 [label="squared_error = 0.0\nsamples = 1\nvalue = 2.389", fillcolor="#fbede3"] ;
97 -> 98 ;
99 [label="squared_error = 0.0\nsamples = 1\nvalue = 2.394", fillcolor="#f9e3d2"] ;
97 -> 99 ;
100 [label="公司标签_计算机软件 <= 0.5\nsquared_error = 0.0\nsamples = 43\nvalue = 2.41", fillcolor="#f2c09c"] ;
8 -> 100 ;
101 [label="公司规模_少于50人 <= 0.5\nsquared_error = 0.0\nsamples = 40\nvalue = 2.411", fillcolor="#f2be99"] ;
100 -> 101 ;
102 [label="公司规模_500-1000人 <= 0.5\nsquared_error = 0.0\nsamples = 38\nvalue = 2.412", fillcolor="#f1bd97"] ;
101 -> 102 ;
103 [label="公司规模_1000-5000人 <= 0.5\nsquared_error = 0.0\nsamples = 32\nvalue = 2.413", fillcolor="#f1bb93"] ;
102 -> 103 ;
104 [label="公司类型_国企 <= 0.5\nsquared_error = 0.0\nsamples = 24\nvalue = 2.414", fillcolor="#f0b990"] ;
103 -> 104 ;
105 [label="公司标签_机械/设备/重工 <= 0.5\nsquared_error = 0.0\nsamples = 20\nvalue = 2.415", fillcolor="#f0b68d"] ;
104 -> 105 ;
106 [label="公司标签_仪器仪表/工业自动化 <= 0.5\nsquared_error = 0.0\nsamples = 18\nvalue = 2.414", fillcolor="#f0b88f"] ;
105 -> 106 ;
107 [label="公司标签_学术/科研 <= 0.5\nsquared_error = 0.0\nsamples = 17\nvalue = 2.415", fillcolor="#f0b78e"] ;
106 -> 107 ;
108 [label="公司类型_外资（非欧美） <= 0.5\nsquared_error = 0.0\nsamples = 16\nvalue = 2.415", fillcolor="#f0b68c"] ;
107 -> 108 ;
109 [label="公司规模_10000人以上 <= 0.5\nsquared_error = 0.0\nsamples = 14\nvalue = 2.414", fillcolor="#f0b78f"] ;
108 -> 109 ;
110 [label="学历要求_本科 <= 0.5\nsquared_error = 0.0\nsamples = 13\nvalue = 2.414", fillcolor="#f0b890"] ;
109 -> 110 ;
111 [label="squared_error = 0.0\nsamples = 1\nvalue = 2.42", fillcolor="#eeac7c"] ;
110 -> 111 ;
112 [label="公司类型_合资 <= 0.5\nsquared_error = 0.0\nsamples = 12\nvalue = 2.414", fillcolor="#f1b992"] ;
110 -> 112 ;
113 [label="公司标签_互联网/电子商务 <= 0.5\nsquared_error = 0.0\nsamples = 11\nvalue = 2.415", fillcolor="#f0b78e"] ;
112 -> 113 ;
114 [label="公司类型_已上市 <= 0.5\nsquared_error = 0.0\nsamples = 10\nvalue = 2.414", fillcolor="#f0b890"] ;
113 -> 114 ;
115 [label="公司规模_5000-10000人 <= 0.5\nsquared_error = 0.0\nsamples = 8\nvalue = 2.413", fillcolor="#f1ba93"] ;
114 -> 115 ;
116 [label="公司类型_事业单位 <= 0.5\nsquared_error = 0.0\nsamples = 7\nvalue = 2.414", fillcolor="#f0b890"] ;
115 -> 116 ;
117 [label="公司规模_150-500人 <= 0.5\nsquared_error = 0.0\nsamples = 6\nvalue = 2.414", fillcolor="#f0b88f"] ;
116 -> 117 ;
118 [label="公司标签_银行 <= 0.5\nsquared_error = 0.0\nsamples = 3\nvalue = 2.413", fillcolor="#f1ba92"] ;
117 -> 118 ;
119 [label="squared_error = -0.0\nsamples = 2\nvalue = 2.412", fillcolor="#f1bc95"] ;
118 -> 119 ;
120 [label="squared_error = 0.0\nsamples = 1\nvalue = 2.415", fillcolor="#f0b58b"] ;
118 -> 120 ;
121 [label="公司标签_专业服务(咨询、人力资源、财会) <= 0.5\nsquared_error = 0.0\nsamples = 3\nvalue = 2.415", fillcolor="#f0b68c"] ;
117 -> 121 ;
122 [label="squared_error = 0.0\nsamples = 2\nvalue = 2.415", fillcolor="#f0b78e"] ;
121 -> 122 ;
123 [label="squared_error = 0.0\nsamples = 1\nvalue = 2.416", fillcolor="#efb488"] ;
121 -> 123 ;
124 [label="squared_error = -0.0\nsamples = 1\nvalue = 2.412", fillcolor="#f1bc95"] ;
116 -> 124 ;
125 [label="squared_error = -0.0\nsamples = 1\nvalue = 2.407", fillcolor="#f3c6a6"] ;
115 -> 125 ;
126 [label="squared_error = 0.0\nsamples = 2\nvalue = 2.417", fillcolor="#efb286"] ;
114 -> 126 ;
127 [label="squared_error = 0.0\nsamples = 1\nvalue = 2.42", fillcolor="#eeac7c"] ;
113 -> 127 ;
128 [label="squared_error = 0.0\nsamples = 1\nvalue = 2.402", fillcolor="#f6d1b7"] ;
112 -> 128 ;
129 [label="squared_error = 0.0\nsamples = 1\nvalue = 2.42", fillcolor="#eeac7c"] ;
109 -> 129 ;
130 [label="squared_error = 0.0\nsamples = 2\nvalue = 2.42", fillcolor="#eeac7c"] ;
108 -> 130 ;
131 [label="squared_error = -0.0\nsamples = 1\nvalue = 2.409", fillcolor="#f3c3a1"] ;
107 -> 131 ;
132 [label="squared_error = 0.0\nsamples = 1\nvalue = 2.406", fillcolor="#f4caab"] ;
106 -> 132 ;
133 [label="公司类型_外资（非欧美） <= 0.5\nsquared_error = 0.0\nsamples = 2\nvalue = 2.422", fillcolor="#eda876"] ;
105 -> 133 ;
134 [label="squared_error = 0.0\nsamples = 1\nvalue = 2.43", fillcolor="#ea985d"] ;
133 -> 134 ;
135 [label="squared_error = 0.0\nsamples = 1\nvalue = 2.415", fillcolor="#f0b78e"] ;
133 -> 135 ;
136 [label="工作经验要求_2年 <= 0.5\nsquared_error = 0.0\nsamples = 4\nvalue = 2.408", fillcolor="#f3c4a2"] ;
104 -> 136 ;
137 [label="公司规模_50-150人 <= 0.5\nsquared_error = 0.0\nsamples = 2\nvalue = 2.401", fillcolor="#f6d3ba"] ;
136 -> 137 ;
138 [label="squared_error = 0.0\nsamples = 1\nvalue = 2.398", fillcolor="#f7dac5"] ;
137 -> 138 ;
139 [label="squared_error = 0.0\nsamples = 1\nvalue = 2.405", fillcolor="#f4cbae"] ;
137 -> 139 ;
140 [label="公司标签_专业服务(咨询、人力资源、财会) <= 0.5\nsquared_error = 0.0\nsamples = 2\nvalue = 2.415", fillcolor="#f0b58b"] ;
136 -> 140 ;
141 [label="squared_error = 0.0\nsamples = 1\nvalue = 2.416", fillcolor="#efb488"] ;
140 -> 141 ;
142 [label="squared_error = 0.0\nsamples = 1\nvalue = 2.415", fillcolor="#f0b78e"] ;
140 -> 142 ;
143 [label="公司类型_国企 <= 0.5\nsquared_error = 0.0\nsamples = 8\nvalue = 2.41", fillcolor="#f2c19d"] ;
103 -> 143 ;
144 [label="公司类型_民营 <= 0.5\nsquared_error = 0.0\nsamples = 4\nvalue = 2.407", fillcolor="#f3c6a6"] ;
143 -> 144 ;
145 [label="公司类型_已上市 <= 0.5\nsquared_error = 0.0\nsamples = 3\nvalue = 2.408", fillcolor="#f3c5a5"] ;
144 -> 145 ;
146 [label="squared_error = 0.0\nsamples = 2\nvalue = 2.407", fillcolor="#f3c6a6"] ;
145 -> 146 ;
147 [label="squared_error = 0.0\nsamples = 1\nvalue = 2.409", fillcolor="#f3c3a1"] ;
145 -> 147 ;
148 [label="squared_error = 0.0\nsamples = 1\nvalue = 2.406", fillcolor="#f4caab"] ;
144 -> 148 ;
149 [label="公司标签_通信/电信/网络设备 <= 0.5\nsquared_error = 0.0\nsamples = 4\nvalue = 2.413", fillcolor="#f1bb94"] ;
143 -> 149 ;
150 [label="工作经验要求_1年 <= 0.5\nsquared_error = 0.0\nsamples = 3\nvalue = 2.414", fillcolor="#f0b88f"] ;
149 -> 150 ;
151 [label="学历要求_硕士 <= 0.5\nsquared_error = 0.0\nsamples = 2\nvalue = 2.416", fillcolor="#f0b48a"] ;
150 -> 151 ;
152 [label="squared_error = 0.0\nsamples = 1\nvalue = 2.415", fillcolor="#f0b58b"] ;
151 -> 152 ;
153 [label="squared_error = 0.0\nsamples = 1\nvalue = 2.416", fillcolor="#efb488"] ;
151 -> 153 ;
154 [label="squared_error = -0.0\nsamples = 1\nvalue = 2.411", fillcolor="#f2be99"] ;
150 -> 154 ;
155 [label="squared_error = 0.0\nsamples = 1\nvalue = 2.409", fillcolor="#f3c3a1"] ;
149 -> 155 ;
156 [label="公司标签_石油/化工/矿产/地质 <= 0.5\nsquared_error = 0.0\nsamples = 6\nvalue = 2.406", fillcolor="#f4caab"] ;
102 -> 156 ;
157 [label="学历要求_硕士 <= 0.5\nsquared_error = 0.0\nsamples = 5\nvalue = 2.408", fillcolor="#f3c4a3"] ;
156 -> 157 ;
158 [label="公司类型_外资（非欧美） <= 0.5\nsquared_error = 0.0\nsamples = 4\nvalue = 2.406", fillcolor="#f4c8a9"] ;
157 -> 158 ;
159 [label="工作经验要求_1年 <= 0.5\nsquared_error = 0.0\nsamples = 3\nvalue = 2.408", fillcolor="#f3c6a5"] ;
158 -> 159 ;
160 [label="squared_error = 0.0\nsamples = 2\nvalue = 2.409", fillcolor="#f3c3a1"] ;
159 -> 160 ;
161 [label="squared_error = -0.0\nsamples = 1\nvalue = 2.406", fillcolor="#f4caab"] ;
159 -> 161 ;
162 [label="squared_error = 0.0\nsamples = 1\nvalue = 2.402", fillcolor="#f6d1b7"] ;
158 -> 162 ;
163 [label="squared_error = 0.0\nsamples = 1\nvalue = 2.416", fillcolor="#efb488"] ;
157 -> 163 ;
164 [label="squared_error = -0.0\nsamples = 1\nvalue = 2.392", fillcolor="#fae6d7"] ;
156 -> 164 ;
165 [label="工作经验要求_2年 <= 0.5\nsquared_error = 0.0\nsamples = 2\nvalue = 2.399", fillcolor="#f7d7c0"] ;
101 -> 165 ;
166 [label="squared_error = 0.0\nsamples = 1\nvalue = 2.396", fillcolor="#f8ddc9"] ;
165 -> 166 ;
167 [label="squared_error = 0.0\nsamples = 1\nvalue = 2.402", fillcolor="#f6d1b7"] ;
165 -> 167 ;
168 [label="公司规模_150-500人 <= 0.5\nsquared_error = 0.0\nsamples = 3\nvalue = 2.397", fillcolor="#f8dbc7"] ;
100 -> 168 ;
169 [label="squared_error = 0.0\nsamples = 2\nvalue = 2.406", fillcolor="#f4caab"] ;
168 -> 169 ;
170 [label="squared_error = -0.0\nsamples = 1\nvalue = 2.38", fillcolor="#ffffff"] ;
168 -> 170 ;
171 [label="地区_一线 <= 0.5\nsquared_error = 0.0\nsamples = 8\nvalue = 2.416", fillcolor="#f0b58b"] ;
7 -> 171 ;
172 [label="squared_error = 0.0\nsamples = 4\nvalue = 2.426", fillcolor="#eba06a"] ;
171 -> 172 ;
173 [label="工作经验要求_1年 <= 0.5\nsquared_error = 0.0\nsamples = 4\nvalue = 2.405", fillcolor="#f4caac"] ;
171 -> 173 ;
174 [label="公司规模_500-1000人 <= 0.5\nsquared_error = 0.0\nsamples = 2\nvalue = 2.402", fillcolor="#f6d1b7"] ;
173 -> 174 ;
175 [label="squared_error = 0.0\nsamples = 1\nvalue = 2.404", fillcolor="#f5cdb1"] ;
174 -> 175 ;
176 [label="squared_error = 0.0\nsamples = 1\nvalue = 2.4", fillcolor="#f6d5be"] ;
174 -> 176 ;
177 [label="squared_error = 0.0\nsamples = 2\nvalue = 2.409", fillcolor="#f3c3a1"] ;
173 -> 177 ;
178 [label="公司规模_1000-5000人 <= 0.5\nsquared_error = 0.0\nsamples = 3\nvalue = 2.392", fillcolor="#fae5d6"] ;
6 -> 178 ;
179 [label="公司规模_500-1000人 <= 0.5\nsquared_error = 0.0\nsamples = 2\nvalue = 2.399", fillcolor="#f7d8c1"] ;
178 -> 179 ;
180 [label="squared_error = 0.0\nsamples = 1\nvalue = 2.398", fillcolor="#f7dac5"] ;
179 -> 180 ;
181 [label="squared_error = 0.0\nsamples = 1\nvalue = 2.4", fillcolor="#f6d5be"] ;
179 -> 181 ;
182 [label="squared_error = 0.0\nsamples = 1\nvalue = 2.38", fillcolor="#ffffff"] ;
178 -> 182 ;
183 [label="公司类型_民营 <= 0.5\nsquared_error = 0.0\nsamples = 41\nvalue = 2.4", fillcolor="#f6d5be"] ;
5 -> 183 ;
184 [label="公司标签_专业服务(咨询、人力资源、财会) <= 0.5\nsquared_error = 0.0\nsamples = 9\nvalue = 2.407", fillcolor="#f4c8a8"] ;
183 -> 184 ;
185 [label="公司规模_10000人以上 <= 0.5\nsquared_error = 0.0\nsamples = 8\nvalue = 2.409", fillcolor="#f3c3a1"] ;
184 -> 185 ;
186 [label="公司标签_计算机软件 <= 0.5\nsquared_error = 0.0\nsamples = 5\nvalue = 2.405", fillcolor="#f4ccaf"] ;
185 -> 186 ;
187 [label="公司标签_电子技术/半导体/集成电路 <= 0.5\nsquared_error = 0.0\nsamples = 4\nvalue = 2.402", fillcolor="#f6d1b7"] ;
186 -> 187 ;
188 [label="公司标签_汽车 <= 0.5\nsquared_error = 0.0\nsamples = 3\nvalue = 2.399", fillcolor="#f7d7c1"] ;
187 -> 188 ;
189 [label="公司规模_150-500人 <= 0.5\nsquared_error = 0.0\nsamples = 2\nvalue = 2.401", fillcolor="#f6d3ba"] ;
188 -> 189 ;
190 [label="squared_error = 0.0\nsamples = 1\nvalue = 2.4", fillcolor="#f6d5be"] ;
189 -> 190 ;
191 [label="squared_error = 0.0\nsamples = 1\nvalue = 2.402", fillcolor="#f6d1b7"] ;
189 -> 191 ;
192 [label="squared_error = 0.0\nsamples = 1\nvalue = 2.395", fillcolor="#f9e0ce"] ;
188 -> 192 ;
193 [label="squared_error = -0.0\nsamples = 1\nvalue = 2.411", fillcolor="#f2be99"] ;
187 -> 193 ;
194 [label="squared_error = 0.0\nsamples = 1\nvalue = 2.415", fillcolor="#f0b78e"] ;
186 -> 194 ;
195 [label="公司标签_银行 <= 0.5\nsquared_error = 0.0\nsamples = 3\nvalue = 2.416", fillcolor="#f0b489"] ;
185 -> 195 ;
196 [label="学历要求_硕士 <= 0.5\nsquared_error = 0.0\nsamples = 2\nvalue = 2.418", fillcolor="#efb083"] ;
195 -> 196 ;
197 [label="squared_error = 0.0\nsamples = 1\nvalue = 2.42", fillcolor="#eead7e"] ;
196 -> 197 ;
198 [label="squared_error = 0.0\nsamples = 1\nvalue = 2.416", fillcolor="#efb488"] ;
196 -> 198 ;
199 [label="squared_error = 0.0\nsamples = 1\nvalue = 2.412", fillcolor="#f1bc95"] ;
195 -> 199 ;
200 [label="squared_error = -0.0\nsamples = 1\nvalue = 2.389", fillcolor="#fbede3"] ;
184 -> 200 ;
201 [label="公司标签_专业服务(咨询、人力资源、财会) <= 0.5\nsquared_error = 0.0\nsamples = 32\nvalue = 2.398", fillcolor="#f7d9c4"] ;
183 -> 201 ;
202 [label="公司标签_石油/化工/矿产/地质 <= 0.5\nsquared_error = 0.0\nsamples = 15\nvalue = 2.394", fillcolor="#f9e1d0"] ;
201 -> 202 ;
203 [label="公司规模_150-500人 <= 0.5\nsquared_error = 0.0\nsamples = 14\nvalue = 2.395", fillcolor="#f8dfcd"] ;
202 -> 203 ;
204 [label="公司标签_教育/培训/院校 <= 0.5\nsquared_error = 0.0\nsamples = 12\nvalue = 2.396", fillcolor="#f8ddc9"] ;
203 -> 204 ;
205 [label="公司标签_金融/投资/证券 <= 0.5\nsquared_error = 0.0\nsamples = 11\nvalue = 2.397", fillcolor="#f8dbc7"] ;
204 -> 205 ;
206 [label="工作经验要求_2年 <= 0.5\nsquared_error = 0.0\nsamples = 10\nvalue = 2.398", fillcolor="#f7dac4"] ;
205 -> 206 ;
207 [label="公司规模_1000-5000人 <= 0.5\nsquared_error = 0.0\nsamples = 5\nvalue = 2.396", fillcolor="#f8decc"] ;
206 -> 207 ;
208 [label="公司规模_50-150人 <= 0.5\nsquared_error = 0.0\nsamples = 2\nvalue = 2.393", fillcolor="#f9e4d5"] ;
207 -> 208 ;
209 [label="squared_error = 0.0\nsamples = 1\nvalue = 2.394", fillcolor="#f9e3d2"] ;
208 -> 209 ;
210 [label="squared_error = 0.0\nsamples = 1\nvalue = 2.392", fillcolor="#fae6d7"] ;
208 -> 210 ;
211 [label="公司标签_建筑/建材/工程 <= 0.5\nsquared_error = 0.0\nsamples = 3\nvalue = 2.398", fillcolor="#f7dac5"] ;
207 -> 211 ;
212 [label="公司标签_医疗设备/器械 <= 0.5\nsquared_error = 0.0\nsamples = 2\nvalue = 2.4", fillcolor="#f7d6bf"] ;
211 -> 212 ;
213 [label="squared_error = 0.0\nsamples = 1\nvalue = 2.406", fillcolor="#f4caab"] ;
212 -> 213 ;
214 [label="squared_error = 0.0\nsamples = 1\nvalue = 2.394", fillcolor="#f9e3d2"] ;
212 -> 214 ;
215 [label="squared_error = -0.0\nsamples = 1\nvalue = 2.394", fillcolor="#f9e3d2"] ;
211 -> 215 ;
216 [label="公司标签_计算机软件 <= 0.5\nsquared_error = 0.0\nsamples = 5\nvalue = 2.4", fillcolor="#f6d5bd"] ;
206 -> 216 ;
217 [label="公司标签_农/林/牧/渔 <= 0.5\nsquared_error = 0.0\nsamples = 4\nvalue = 2.401", fillcolor="#f6d2b9"] ;
216 -> 217 ;
218 [label="公司规模_1000-5000人 <= 0.5\nsquared_error = 0.0\nsamples = 3\nvalue = 2.403", fillcolor="#f5d0b5"] ;
217 -> 218 ;
219 [label="squared_error = 0.0\nsamples = 2\nvalue = 2.402", fillcolor="#f6d1b7"] ;
218 -> 219 ;
220 [label="squared_error = -0.0\nsamples = 1\nvalue = 2.404", fillcolor="#f5cdb1"] ;
218 -> 220 ;
221 [label="squared_error = 0.0\nsamples = 1\nvalue = 2.398", fillcolor="#f7dac5"] ;
217 -> 221 ;
222 [label="squared_error = 0.0\nsamples = 1\nvalue = 2.395", fillcolor="#f9e0ce"] ;
216 -> 222 ;
223 [label="squared_error = -0.0\nsamples = 1\nvalue = 2.389", fillcolor="#fbede3"] ;
205 -> 223 ;
224 [label="squared_error = 0.0\nsamples = 1\nvalue = 2.389", fillcolor="#fbede3"] ;
204 -> 224 ;
225 [label="公司标签_农/林/牧/渔 <= 0.5\nsquared_error = 0.0\nsamples = 2\nvalue = 2.388", fillcolor="#fbede3"] ;
203 -> 225 ;
226 [label="squared_error = 0.0\nsamples = 1\nvalue = 2.395", fillcolor="#f9e0ce"] ;
225 -> 226 ;
227 [label="squared_error = 0.0\nsamples = 1\nvalue = 2.382", fillcolor="#fefbf8"] ;
225 -> 227 ;
228 [label="squared_error = -0.0\nsamples = 1\nvalue = 2.382", fillcolor="#fefaf7"] ;
202 -> 228 ;
229 [label="工作经验要求_2年 <= 0.5\nsquared_error = 0.0\nsamples = 17\nvalue = 2.401", fillcolor="#f6d3b9"] ;
201 -> 229 ;
230 [label="公司规模_少于50人 <= 0.5\nsquared_error = 0.0\nsamples = 5\nvalue = 2.394", fillcolor="#f9e2d1"] ;
229 -> 230 ;
231 [label="学历要求_本科 <= 0.5\nsquared_error = 0.0\nsamples = 3\nvalue = 2.39", fillcolor="#fbeade"] ;
230 -> 231 ;
232 [label="公司规模_150-500人 <= 0.5\nsquared_error = 0.0\nsamples = 2\nvalue = 2.395", fillcolor="#f8dfcd"] ;
231 -> 232 ;
233 [label="squared_error = 0.0\nsamples = 1\nvalue = 2.387", fillcolor="#fcf1e9"] ;
232 -> 233 ;
234 [label="squared_error = 0.0\nsamples = 1\nvalue = 2.404", fillcolor="#f5cdb1"] ;
232 -> 234 ;
235 [label="squared_error = 0.0\nsamples = 1\nvalue = 2.38", fillcolor="#ffffff"] ;
231 -> 235 ;
236 [label="工作经验要求_1年 <= 0.5\nsquared_error = 0.0\nsamples = 2\nvalue = 2.4", fillcolor="#f6d6be"] ;
230 -> 236 ;
237 [label="squared_error = 0.0\nsamples = 1\nvalue = 2.401", fillcolor="#f6d3ba"] ;
236 -> 237 ;
238 [label="squared_error = 0.0\nsamples = 1\nvalue = 2.399", fillcolor="#f7d8c1"] ;
236 -> 238 ;
239 [label="公司规模_50-150人 <= 0.5\nsquared_error = 0.0\nsamples = 12\nvalue = 2.404", fillcolor="#f5ccb0"] ;
229 -> 239 ;
240 [label="squared_error = 0.0\nsamples = 1\nvalue = 2.409", fillcolor="#f3c3a1"] ;
239 -> 240 ;
241 [label="squared_error = -0.0\nsamples = 11\nvalue = 2.404", fillcolor="#f5cdb1"] ;
239 -> 241 ;
242 [label="公司标签_金融/投资/证券 <= 0.5\nsquared_error = 0.0\nsamples = 87\nvalue = 2.4", fillcolor="#f6d6be"] ;
4 -> 242 ;
243 [label="公司标签_电子技术/半导体/集成电路 <= 0.5\nsquared_error = 0.0\nsamples = 86\nvalue = 2.4", fillcolor="#f7d6bf"] ;
242 -> 243 ;
244 [label="公司标签_互联网/电子商务 <= 0.5\nsquared_error = 0.0\nsamples = 80\nvalue = 2.399", fillcolor="#f7d7c0"] ;
243 -> 244 ;
245 [label="工作经验要求_2年 <= 0.5\nsquared_error = 0.0\nsamples = 75\nvalue = 2.399", fillcolor="#f7d8c1"] ;
244 -> 245 ;
246 [label="公司规模_50-150人 <= 0.5\nsquared_error = 0.0\nsamples = 41\nvalue = 2.397", fillcolor="#f8dbc6"] ;
245 -> 246 ;
247 [label="公司标签_专业服务(咨询、人力资源、财会) <= 0.5\nsquared_error = 0.0\nsamples = 35\nvalue = 2.398", fillcolor="#f7d9c3"] ;
246 -> 247 ;
248 [label="公司规模_5000-10000人 <= 0.5\nsquared_error = 0.0\nsamples = 26\nvalue = 2.397", fillcolor="#f8dbc7"] ;
247 -> 248 ;
249 [label="公司标签_房地产 <= 0.5\nsquared_error = 0.0\nsamples = 25\nvalue = 2.397", fillcolor="#f8dcc8"] ;
248 -> 249 ;
250 [label="地区_三线 <= 0.5\nsquared_error = 0.0\nsamples = 24\nvalue = 2.397", fillcolor="#f8dbc7"] ;
249 -> 250 ;
251 [label="公司类型_民营 <= 0.5\nsquared_error = 0.0\nsamples = 6\nvalue = 2.4", fillcolor="#f6d5be"] ;
250 -> 251 ;
252 [label="公司规模_150-500人 <= 0.5\nsquared_error = 0.0\nsamples = 3\nvalue = 2.398", fillcolor="#f7d9c4"] ;
251 -> 252 ;
253 [label="公司标签_制药/生物工程 <= 0.5\nsquared_error = 0.0\nsamples = 2\nvalue = 2.398", fillcolor="#f7dac5"] ;
252 -> 253 ;
254 [label="squared_error = 0.0\nsamples = 1\nvalue = 2.398", fillcolor="#f7dac5"] ;
253 -> 254 ;
255 [label="squared_error = 0.0\nsamples = 1\nvalue = 2.398", fillcolor="#f7dac5"] ;
253 -> 255 ;
256 [label="squared_error = -0.0\nsamples = 1\nvalue = 2.399", fillcolor="#f7d8c1"] ;
252 -> 256 ;
257 [label="公司标签_服装/纺织/皮革 <= 0.5\nsquared_error = 0.0\nsamples = 3\nvalue = 2.402", fillcolor="#f6d1b7"] ;
251 -> 257 ;
258 [label="公司规模_150-500人 <= 0.5\nsquared_error = 0.0\nsamples = 2\nvalue = 2.403", fillcolor="#f5cfb4"] ;
257 -> 258 ;
259 [label="squared_error = 0.0\nsamples = 1\nvalue = 2.404", fillcolor="#f5cdb1"] ;
258 -> 259 ;
260 [label="squared_error = -0.0\nsamples = 1\nvalue = 2.402", fillcolor="#f6d1b7"] ;
258 -> 260 ;
261 [label="squared_error = -0.0\nsamples = 1\nvalue = 2.4", fillcolor="#f6d5be"] ;
257 -> 261 ;
262 [label="公司类型_外资（非欧美） <= 0.5\nsquared_error = 0.0\nsamples = 18\nvalue = 2.396", fillcolor="#f8deca"] ;
250 -> 262 ;
263 [label="工作经验要求_1年 <= 0.5\nsquared_error = 0.0\nsamples = 17\nvalue = 2.396", fillcolor="#f8ddc9"] ;
262 -> 263 ;
264 [label="squared_error = 0.0\nsamples = 1\nvalue = 2.404", fillcolor="#f5cdb1"] ;
263 -> 264 ;
265 [label="公司类型_国企 <= 0.5\nsquared_error = 0.0\nsamples = 16\nvalue = 2.396", fillcolor="#f8decb"] ;
263 -> 265 ;
266 [label="公司规模_150-500人 <= 0.5\nsquared_error = 0.0\nsamples = 11\nvalue = 2.395", fillcolor="#f8dfcd"] ;
265 -> 266 ;
267 [label="公司标签_快速消费品(食品、饮料、化妆品) <= 0.5\nsquared_error = 0.0\nsamples = 9\nvalue = 2.396", fillcolor="#f8ddca"] ;
266 -> 267 ;
268 [label="公司标签_机械/设备/重工 <= 0.5\nsquared_error = 0.0\nsamples = 8\nvalue = 2.397", fillcolor="#f8dcc8"] ;
267 -> 268 ;
269 [label="公司标签_仪器仪表/工业自动化 <= 0.5\nsquared_error = 0.0\nsamples = 7\nvalue = 2.398", fillcolor="#f7dbc6"] ;
268 -> 269 ;
270 [label="公司规模_500-1000人 <= 0.5\nsquared_error = 0.0\nsamples = 4\nvalue = 2.399", fillcolor="#f7d7c0"] ;
269 -> 270 ;
271 [label="squared_error = 0.0\nsamples = 2\nvalue = 2.4", fillcolor="#f6d5be"] ;
270 -> 271 ;
272 [label="squared_error = 0.0\nsamples = 2\nvalue = 2.399", fillcolor="#f7d8c1"] ;
270 -> 272 ;
273 [label="squared_error = -0.0\nsamples = 3\nvalue = 2.395", fillcolor="#f9e0ce"] ;
269 -> 273 ;
274 [label="squared_error = -0.0\nsamples = 1\nvalue = 2.392", fillcolor="#fae6d7"] ;
268 -> 274 ;
275 [label="squared_error = -0.0\nsamples = 1\nvalue = 2.392", fillcolor="#fae6d7"] ;
267 -> 275 ;
276 [label="公司标签_机械/设备/重工 <= 0.5\nsquared_error = 0.0\nsamples = 2\nvalue = 2.39", fillcolor="#fbeadf"] ;
266 -> 276 ;
277 [label="squared_error = 0.0\nsamples = 1\nvalue = 2.385", fillcolor="#fdf5ef"] ;
276 -> 277 ;
278 [label="squared_error = 0.0\nsamples = 1\nvalue = 2.395", fillcolor="#f9e0ce"] ;
276 -> 278 ;
279 [label="squared_error = -0.0\nsamples = 5\nvalue = 2.398", fillcolor="#f7dac5"] ;
265 -> 279 ;
280 [label="squared_error = 0.0\nsamples = 1\nvalue = 2.39", fillcolor="#fbe9dd"] ;
262 -> 280 ;
281 [label="squared_error = 0.0\nsamples = 1\nvalue = 2.389", fillcolor="#fbede3"] ;
249 -> 281 ;
282 [label="squared_error = 0.0\nsamples = 1\nvalue = 2.406", fillcolor="#f4caab"] ;
248 -> 282 ;
283 [label="公司类型_外资（非欧美） <= 0.5\nsquared_error = 0.0\nsamples = 9\nvalue = 2.402", fillcolor="#f5d1b6"] ;
247 -> 283 ;
284 [label="公司类型_民营 <= 0.5\nsquared_error = 0.0\nsamples = 8\nvalue = 2.401", fillcolor="#f6d4bb"] ;
283 -> 284 ;
285 [label="公司规模_150-500人 <= 0.5\nsquared_error = 0.0\nsamples = 2\nvalue = 2.394", fillcolor="#f9e1d0"] ;
284 -> 285 ;
286 [label="squared_error = 0.0\nsamples = 1\nvalue = 2.395", fillcolor="#f9e0ce"] ;
285 -> 286 ;
287 [label="squared_error = -0.0\nsamples = 1\nvalue = 2.394", fillcolor="#f9e3d2"] ;
285 -> 287 ;
288 [label="公司规模_150-500人 <= 0.5\nsquared_error = 0.0\nsamples = 6\nvalue = 2.403", fillcolor="#f5d0b5"] ;
284 -> 288 ;
289 [label="squared_error = 0.0\nsamples = 2\nvalue = 2.399", fillcolor="#f7d6bf"] ;
288 -> 289 ;
290 [label="地区_二线 <= 0.5\nsquared_error = 0.0\nsamples = 4\nvalue = 2.404", fillcolor="#f5ccaf"] ;
288 -> 290 ;
291 [label="地区_三线 <= 0.5\nsquared_error = 0.0\nsamples = 3\nvalue = 2.407", fillcolor="#f4c8a8"] ;
290 -> 291 ;
292 [label="squared_error = 0.0\nsamples = 2\nvalue = 2.406", fillcolor="#f4caab"] ;
291 -> 292 ;
293 [label="squared_error = -0.0\nsamples = 1\nvalue = 2.409", fillcolor="#f3c3a1"] ;
291 -> 293 ;
294 [label="squared_error = 0.0\nsamples = 1\nvalue = 2.398", fillcolor="#f7dac5"] ;
290 -> 294 ;
295 [label="squared_error = 0.0\nsamples = 1\nvalue = 2.415", fillcolor="#f0b78e"] ;
283 -> 295 ;
296 [label="公司类型_外资（欧美） <= 0.5\nsquared_error = 0.0\nsamples = 6\nvalue = 2.392", fillcolor="#fae6d8"] ;
246 -> 296 ;
297 [label="工作经验要求_1年 <= 0.5\nsquared_error = 0.0\nsamples = 5\nvalue = 2.393", fillcolor="#f9e3d3"] ;
296 -> 297 ;
298 [label="squared_error = 0.0\nsamples = 1\nvalue = 2.402", fillcolor="#f6d1b7"] ;
297 -> 298 ;
299 [label="公司标签_专业服务(咨询、人力资源、财会) <= 0.5\nsquared_error = 0.0\nsamples = 4\nvalue = 2.391", fillcolor="#fae8da"] ;
297 -> 299 ;
300 [label="公司标签_快速消费品(食品、饮料、化妆品) <= 0.5\nsquared_error = 0.0\nsamples = 3\nvalue = 2.395", fillcolor="#f9e0ce"] ;
299 -> 300 ;
301 [label="squared_error = -0.0\nsamples = 2\nvalue = 2.394", fillcolor="#f9e3d2"] ;
300 -> 301 ;
302 [label="squared_error = 0.0\nsamples = 1\nvalue = 2.398", fillcolor="#f7dac5"] ;
300 -> 302 ;
303 [label="squared_error = 0.0\nsamples = 1\nvalue = 2.38", fillcolor="#ffffff"] ;
299 -> 303 ;
304 [label="squared_error = 0.0\nsamples = 1\nvalue = 2.385", fillcolor="#fdf5ef"] ;
296 -> 304 ;
305 [label="公司标签_外包服务 <= 0.5\nsquared_error = 0.0\nsamples = 34\nvalue = 2.4", fillcolor="#f6d4bc"] ;
245 -> 305 ;
306 [label="公司标签_餐饮业 <= 0.5\nsquared_error = 0.0\nsamples = 32\nvalue = 2.4", fillcolor="#f6d6be"] ;
305 -> 306 ;
307 [label="公司规模_50-150人 <= 0.5\nsquared_error = 0.0\nsamples = 31\nvalue = 2.4", fillcolor="#f7d6bf"] ;
306 -> 307 ;
308 [label="公司类型_国企 <= 0.5\nsquared_error = 0.0\nsamples = 23\nvalue = 2.398", fillcolor="#f7d9c3"] ;
307 -> 308 ;
309 [label="公司规模_1000-5000人 <= 0.5\nsquared_error = 0.0\nsamples = 22\nvalue = 2.399", fillcolor="#f7d8c2"] ;
308 -> 309 ;
310 [label="公司标签_服装/纺织/皮革 <= 0.5\nsquared_error = 0.0\nsamples = 20\nvalue = 2.398", fillcolor="#f7d9c3"] ;
309 -> 310 ;
311 [label="公司标签_医疗设备/器械 <= 0.5\nsquared_error = 0.0\nsamples = 18\nvalue = 2.398", fillcolor="#f7dac5"] ;
310 -> 311 ;
312 [label="公司标签_酒店/旅游 <= 0.5\nsquared_error = 0.0\nsamples = 17\nvalue = 2.398", fillcolor="#f7d9c4"] ;
311 -> 312 ;
313 [label="地区_一线 <= 0.5\nsquared_error = 0.0\nsamples = 16\nvalue = 2.398", fillcolor="#f7d9c3"] ;
312 -> 313 ;
314 [label="公司标签_物业管理/商业中心 <= 0.5\nsquared_error = 0.0\nsamples = 13\nvalue = 2.398", fillcolor="#f7dac5"] ;
313 -> 314 ;
315 [label="公司标签_专业服务(咨询、人力资源、财会) <= 0.5\nsquared_error = 0.0\nsamples = 12\nvalue = 2.397", fillcolor="#f8dbc7"] ;
314 -> 315 ;
316 [label="公司规模_150-500人 <= 0.5\nsquared_error = 0.0\nsamples = 7\nvalue = 2.396", fillcolor="#f8decb"] ;
315 -> 316 ;
317 [label="公司类型_合资 <= 0.5\nsquared_error = 0.0\nsamples = 6\nvalue = 2.397", fillcolor="#f8dbc7"] ;
316 -> 317 ;
318 [label="公司规模_500-1000人 <= 0.5\nsquared_error = 0.0\nsamples = 5\nvalue = 2.396", fillcolor="#f8ddca"] ;
317 -> 318 ;
319 [label="公司规模_少于50人 <= 0.5\nsquared_error = 0.0\nsamples = 2\nvalue = 2.399", fillcolor="#f7d8c1"] ;
318 -> 319 ;
320 [label="squared_error = 0.0\nsamples = 1\nvalue = 2.4", fillcolor="#f6d5be"] ;
319 -> 320 ;
321 [label="squared_error = 0.0\nsamples = 1\nvalue = 2.398", fillcolor="#f7dac5"] ;
319 -> 321 ;
322 [label="地区_二线 <= 0.5\nsquared_error = 0.0\nsamples = 3\nvalue = 2.394", fillcolor="#f9e1d0"] ;
318 -> 322 ;
323 [label="squared_error = 0.0\nsamples = 1\nvalue = 2.392", fillcolor="#fae6d7"] ;
322 -> 323 ;
324 [label="公司标签_房地产 <= 0.5\nsquared_error = 0.0\nsamples = 2\nvalue = 2.396", fillcolor="#f8decc"] ;
322 -> 324 ;
325 [label="squared_error = 0.0\nsamples = 1\nvalue = 2.394", fillcolor="#f9e3d2"] ;
324 -> 325 ;
326 [label="squared_error = 0.0\nsamples = 1\nvalue = 2.398", fillcolor="#f7dac5"] ;
324 -> 326 ;
327 [label="squared_error = -0.0\nsamples = 1\nvalue = 2.402", fillcolor="#f6d1b7"] ;
317 -> 327 ;
328 [label="squared_error = -0.0\nsamples = 1\nvalue = 2.389", fillcolor="#fbede3"] ;
316 -> 328 ;
329 [label="公司规模_少于50人 <= 0.5\nsquared_error = 0.0\nsamples = 5\nvalue = 2.399", fillcolor="#f7d7c1"] ;
315 -> 329 ;
330 [label="squared_error = 0.0\nsamples = 1\nvalue = 2.409", fillcolor="#f3c3a1"] ;
329 -> 330 ;
331 [label="地区_三线 <= 0.5\nsquared_error = 0.0\nsamples = 4\nvalue = 2.397", fillcolor="#f8dcc9"] ;
329 -> 331 ;
332 [label="squared_error = 0.0\nsamples = 1\nvalue = 2.409", fillcolor="#f3c3a1"] ;
331 -> 332 ;
333 [label="squared_error = 0.0\nsamples = 3\nvalue = 2.393", fillcolor="#fae5d6"] ;
331 -> 333 ;
334 [label="squared_error = 0.0\nsamples = 1\nvalue = 2.404", fillcolor="#f5cdb1"] ;
314 -> 334 ;
335 [label="公司规模_500-1000人 <= 0.5\nsquared_error = 0.0\nsamples = 3\nvalue = 2.401", fillcolor="#f6d4bb"] ;
313 -> 335 ;
336 [label="公司规模_少于50人 <= 0.5\nsquared_error = 0.0\nsamples = 2\nvalue = 2.403", fillcolor="#f5d0b5"] ;
335 -> 336 ;
337 [label="squared_error = 0.0\nsamples = 1\nvalue = 2.402", fillcolor="#f6d1b7"] ;
336 -> 337 ;
338 [label="squared_error = 0.0\nsamples = 1\nvalue = 2.403", fillcolor="#f5cfb4"] ;
336 -> 338 ;
339 [label="squared_error = -0.0\nsamples = 1\nvalue = 2.398", fillcolor="#f7dac5"] ;
335 -> 339 ;
340 [label="squared_error = -0.0\nsamples = 1\nvalue = 2.394", fillcolor="#f9e3d2"] ;
312 -> 340 ;
341 [label="squared_error = 0.0\nsamples = 1\nvalue = 2.392", fillcolor="#fae6d7"] ;
311 -> 341 ;
342 [label="squared_error = 0.0\nsamples = 2\nvalue = 2.403", fillcolor="#f5cfb3"] ;
310 -> 342 ;
343 [label="公司标签_计算机软件 <= 0.5\nsquared_error = 0.0\nsamples = 2\nvalue = 2.404", fillcolor="#f5cdb1"] ;
309 -> 343 ;
344 [label="squared_error = 0.0\nsamples = 1\nvalue = 2.402", fillcolor="#f6d1b7"] ;
343 -> 344 ;
345 [label="squared_error = 0.0\nsamples = 1\nvalue = 2.406", fillcolor="#f4caab"] ;
343 -> 345 ;
346 [label="squared_error = -0.0\nsamples = 1\nvalue = 2.389", fillcolor="#fbede3"] ;
308 -> 346 ;
347 [label="地区_一线 <= 0.5\nsquared_error = 0.0\nsamples = 8\nvalue = 2.403", fillcolor="#f5cfb4"] ;
307 -> 347 ;
348 [label="公司标签_计算机软件 <= 0.5\nsquared_error = 0.0\nsamples = 5\nvalue = 2.405", fillcolor="#f4cbae"] ;
347 -> 348 ;
349 [label="公司标签_制药/生物工程 <= 0.5\nsquared_error = 0.0\nsamples = 4\nvalue = 2.406", fillcolor="#f4c9aa"] ;
348 -> 349 ;
350 [label="公司标签_建筑/建材/工程 <= 0.5\nsquared_error = 0.0\nsamples = 3\nvalue = 2.408", fillcolor="#f3c6a5"] ;
349 -> 350 ;
351 [label="squared_error = 0.0\nsamples = 1\nvalue = 2.409", fillcolor="#f3c3a1"] ;
350 -> 351 ;
352 [label="squared_error = 0.0\nsamples = 2\nvalue = 2.407", fillcolor="#f3c7a7"] ;
350 -> 352 ;
353 [label="squared_error = 0.0\nsamples = 1\nvalue = 2.402", fillcolor="#f6d1b7"] ;
349 -> 353 ;
354 [label="squared_error = -0.0\nsamples = 1\nvalue = 2.4", fillcolor="#f6d5be"] ;
348 -> 354 ;
355 [label="公司标签_物业管理/商业中心 <= 0.5\nsquared_error = 0.0\nsamples = 3\nvalue = 2.4", fillcolor="#f6d5bd"] ;
347 -> 355 ;
356 [label="squared_error = 0.0\nsamples = 2\nvalue = 2.397", fillcolor="#f7dbc6"] ;
355 -> 356 ;
357 [label="squared_error = -0.0\nsamples = 1\nvalue = 2.405", fillcolor="#f4cbad"] ;
355 -> 357 ;
358 [label="squared_error = -0.0\nsamples = 1\nvalue = 2.411", fillcolor="#f2be99"] ;
306 -> 358 ;
359 [label="地区_一线 <= 0.5\nsquared_error = 0.0\nsamples = 2\nvalue = 2.409", fillcolor="#f3c3a1"] ;
305 -> 359 ;
360 [label="squared_error = 0.0\nsamples = 1\nvalue = 2.42", fillcolor="#eeac7c"] ;
359 -> 360 ;
361 [label="squared_error = 0.0\nsamples = 1\nvalue = 2.398", fillcolor="#f7dac5"] ;
359 -> 361 ;
362 [label="公司规模_1000-5000人 <= 0.5\nsquared_error = 0.0\nsamples = 5\nvalue = 2.404", fillcolor="#f5ccb0"] ;
244 -> 362 ;
363 [label="工作经验要求_2年 <= 0.5\nsquared_error = 0.0\nsamples = 3\nvalue = 2.401", fillcolor="#f6d4bc"] ;
362 -> 363 ;
364 [label="squared_error = 0.0\nsamples = 1\nvalue = 2.404", fillcolor="#f5cdb1"] ;
363 -> 364 ;
365 [label="squared_error = 0.0\nsamples = 2\nvalue = 2.399", fillcolor="#f7d8c1"] ;
363 -> 365 ;
366 [label="squared_error = 0.0\nsamples = 2\nvalue = 2.41", fillcolor="#f2c19d"] ;
362 -> 366 ;
367 [label="地区_一线 <= 0.5\nsquared_error = 0.0\nsamples = 6\nvalue = 2.405", fillcolor="#f4cbad"] ;
243 -> 367 ;
368 [label="地区_三线 <= 0.5\nsquared_error = 0.0\nsamples = 4\nvalue = 2.401", fillcolor="#f6d3ba"] ;
367 -> 368 ;
369 [label="squared_error = 0.0\nsamples = 2\nvalue = 2.399", fillcolor="#f7d8c1"] ;
368 -> 369 ;
370 [label="squared_error = 0.0\nsamples = 2\nvalue = 2.403", fillcolor="#f5ceb2"] ;
368 -> 370 ;
371 [label="公司规模_1000-5000人 <= 0.5\nsquared_error = 0.0\nsamples = 2\nvalue = 2.413", fillcolor="#f1bb94"] ;
367 -> 371 ;
372 [label="squared_error = 0.0\nsamples = 1\nvalue = 2.41", fillcolor="#f2c19d"] ;
371 -> 372 ;
373 [label="squared_error = -0.0\nsamples = 1\nvalue = 2.415", fillcolor="#f0b58b"] ;
371 -> 373 ;
374 [label="squared_error = 0.0\nsamples = 1\nvalue = 2.428", fillcolor="#eb9c63"] ;
242 -> 374 ;
375 [label="学历要求_大专 <= 0.5\nsquared_error = 0.0\nsamples = 175\nvalue = 2.409", fillcolor="#f2c29f"] ;
3 -> 375 ;
376 [label="地区_一线 <= 0.5\nsquared_error = 0.0\nsamples = 118\nvalue = 2.411", fillcolor="#f2bf9a"] ;
375 -> 376 ;
377 [label="公司标签_教育/培训/院校 <= 0.5\nsquared_error = 0.0\nsamples = 78\nvalue = 2.409", fillcolor="#f3c4a2"] ;
376 -> 377 ;
378 [label="公司标签_专业服务(咨询、人力资源、财会) <= 0.5\nsquared_error = 0.0\nsamples = 74\nvalue = 2.408", fillcolor="#f3c5a4"] ;
377 -> 378 ;
379 [label="公司标签_计算机软件 <= 0.5\nsquared_error = 0.0\nsamples = 62\nvalue = 2.406", fillcolor="#f4c8a9"] ;
378 -> 379 ;
380 [label="公司标签_石油/化工/矿产/地质 <= 0.5\nsquared_error = 0.0\nsamples = 61\nvalue = 2.407", fillcolor="#f3c7a7"] ;
379 -> 380 ;
381 [label="公司标签_多元化业务集团公司 <= 0.5\nsquared_error = 0.0\nsamples = 59\nvalue = 2.407", fillcolor="#f3c6a6"] ;
380 -> 381 ;
382 [label="地区_二线 <= 0.5\nsquared_error = 0.0\nsamples = 53\nvalue = 2.407", fillcolor="#f4c8a8"] ;
381 -> 382 ;
383 [label="公司规模_5000-10000人 <= 0.5\nsquared_error = 0.0\nsamples = 30\nvalue = 2.405", fillcolor="#f4cbae"] ;
382 -> 383 ;
384 [label="公司类型_国企 <= 0.5\nsquared_error = 0.0\nsamples = 29\nvalue = 2.404", fillcolor="#f5ccaf"] ;
383 -> 384 ;
385 [label="公司标签_房地产 <= 0.5\nsquared_error = 0.0\nsamples = 27\nvalue = 2.405", fillcolor="#f4caac"] ;
384 -> 385 ;
386 [label="公司标签_制药/生物工程 <= 0.5\nsquared_error = 0.0\nsamples = 26\nvalue = 2.405", fillcolor="#f4cbae"] ;
385 -> 386 ;
387 [label="公司规模_1000-5000人 <= 0.5\nsquared_error = 0.0\nsamples = 22\nvalue = 2.404", fillcolor="#f5cdb1"] ;
386 -> 387 ;
388 [label="公司标签_批发/零售 <= 0.5\nsquared_error = 0.0\nsamples = 19\nvalue = 2.403", fillcolor="#f5cfb4"] ;
387 -> 388 ;
389 [label="公司标签_新能源 <= 0.5\nsquared_error = 0.0\nsamples = 15\nvalue = 2.402", fillcolor="#f6d2b8"] ;
388 -> 389 ;
390 [label="公司规模_50-150人 <= 0.5\nsquared_error = 0.0\nsamples = 12\nvalue = 2.4", fillcolor="#f6d5bd"] ;
389 -> 390 ;
391 [label="公司规模_少于50人 <= 0.5\nsquared_error = 0.0\nsamples = 9\nvalue = 2.401", fillcolor="#f6d3ba"] ;
390 -> 391 ;
392 [label="公司标签_医疗设备/器械 <= 0.5\nsquared_error = 0.0\nsamples = 8\nvalue = 2.401", fillcolor="#f6d2b9"] ;
391 -> 392 ;
393 [label="公司规模_10000人以上 <= 0.5\nsquared_error = 0.0\nsamples = 7\nvalue = 2.401", fillcolor="#f6d4bc"] ;
392 -> 393 ;
394 [label="公司标签_快速消费品(食品、饮料、化妆品) <= 0.5\nsquared_error = 0.0\nsamples = 6\nvalue = 2.401", fillcolor="#f6d3ba"] ;
393 -> 394 ;
395 [label="公司规模_500-1000人 <= 0.5\nsquared_error = 0.0\nsamples = 5\nvalue = 2.402", fillcolor="#f6d2b8"] ;
394 -> 395 ;
396 [label="公司标签_物业管理/商业中心 <= 0.5\nsquared_error = 0.0\nsamples = 3\nvalue = 2.402", fillcolor="#f6d2b8"] ;
395 -> 396 ;
397 [label="squared_error = 0.0\nsamples = 2\nvalue = 2.401", fillcolor="#f6d3b9"] ;
396 -> 397 ;
398 [label="squared_error = 0.0\nsamples = 1\nvalue = 2.402", fillcolor="#f6d1b7"] ;
396 -> 398 ;
399 [label="squared_error = -0.0\nsamples = 2\nvalue = 2.402", fillcolor="#f6d1b7"] ;
395 -> 399 ;
400 [label="squared_error = 0.0\nsamples = 1\nvalue = 2.398", fillcolor="#f7dac5"] ;
394 -> 400 ;
401 [label="squared_error = -0.0\nsamples = 1\nvalue = 2.398", fillcolor="#f7dac5"] ;
393 -> 401 ;
402 [label="squared_error = -0.0\nsamples = 1\nvalue = 2.407", fillcolor="#f3c6a6"] ;
392 -> 402 ;
403 [label="squared_error = -0.0\nsamples = 1\nvalue = 2.398", fillcolor="#f7dac5"] ;
391 -> 403 ;
404 [label="squared_error = 0.0\nsamples = 3\nvalue = 2.397", fillcolor="#f7dbc6"] ;
390 -> 404 ;
405 [label="squared_error = 0.0\nsamples = 3\nvalue = 2.408", fillcolor="#f3c5a3"] ;
389 -> 405 ;
406 [label="公司类型_已上市 <= 0.5\nsquared_error = 0.0\nsamples = 4\nvalue = 2.408", fillcolor="#f3c5a4"] ;
388 -> 406 ;
407 [label="公司类型_外资（欧美） <= 0.5\nsquared_error = 0.0\nsamples = 2\nvalue = 2.406", fillcolor="#f4c8a9"] ;
406 -> 407 ;
408 [label="squared_error = 0.0\nsamples = 1\nvalue = 2.407", fillcolor="#f3c6a6"] ;
407 -> 408 ;
409 [label="squared_error = -0.0\nsamples = 1\nvalue = 2.406", fillcolor="#f4caab"] ;
407 -> 409 ;
410 [label="squared_error = 0.0\nsamples = 2\nvalue = 2.409", fillcolor="#f2c29f"] ;
406 -> 410 ;
411 [label="公司类型_已上市 <= 0.5\nsquared_error = 0.0\nsamples = 3\nvalue = 2.409", fillcolor="#f3c3a0"] ;
387 -> 411 ;
412 [label="squared_error = 0.0\nsamples = 2\nvalue = 2.412", fillcolor="#f1bc95"] ;
411 -> 412 ;
413 [label="squared_error = 0.0\nsamples = 1\nvalue = 2.402", fillcolor="#f6d1b7"] ;
411 -> 413 ;
414 [label="公司类型_民营 <= 0.5\nsquared_error = 0.0\nsamples = 4\nvalue = 2.41", fillcolor="#f2c09c"] ;
386 -> 414 ;
415 [label="squared_error = 0.0\nsamples = 1\nvalue = 2.415", fillcolor="#f0b78e"] ;
414 -> 415 ;
416 [label="squared_error = 0.0\nsamples = 3\nvalue = 2.409", fillcolor="#f3c3a0"] ;
414 -> 416 ;
417 [label="squared_error = -0.0\nsamples = 1\nvalue = 2.417", fillcolor="#efb286"] ;
385 -> 417 ;
418 [label="公司标签_建筑/建材/工程 <= 0.5\nsquared_error = 0.0\nsamples = 2\nvalue = 2.392", fillcolor="#fae6d8"] ;
384 -> 418 ;
419 [label="squared_error = 0.0\nsamples = 1\nvalue = 2.389", fillcolor="#fbede3"] ;
418 -> 419 ;
420 [label="squared_error = 0.0\nsamples = 1\nvalue = 2.395", fillcolor="#f9e0ce"] ;
418 -> 420 ;
421 [label="squared_error = -0.0\nsamples = 1\nvalue = 2.422", fillcolor="#eda978"] ;
383 -> 421 ;
422 [label="公司类型_民营 <= 0.5\nsquared_error = 0.0\nsamples = 23\nvalue = 2.409", fillcolor="#f3c3a1"] ;
382 -> 422 ;
423 [label="公司标签_仪器仪表/工业自动化 <= 0.5\nsquared_error = 0.0\nsamples = 5\nvalue = 2.413", fillcolor="#f1bb94"] ;
422 -> 423 ;
424 [label="公司类型_合资 <= 0.5\nsquared_error = 0.0\nsamples = 4\nvalue = 2.414", fillcolor="#f1b991"] ;
423 -> 424 ;
425 [label="squared_error = -0.0\nsamples = 3\nvalue = 2.414", fillcolor="#f1b992"] ;
424 -> 425 ;
426 [label="squared_error = 0.0\nsamples = 1\nvalue = 2.415", fillcolor="#f0b78e"] ;
424 -> 426 ;
427 [label="squared_error = 0.0\nsamples = 1\nvalue = 2.409", fillcolor="#f3c3a1"] ;
423 -> 427 ;
428 [label="公司标签_快速消费品(食品、饮料、化妆品) <= 0.5\nsquared_error = 0.0\nsamples = 18\nvalue = 2.408", fillcolor="#f3c5a5"] ;
422 -> 428 ;
429 [label="公司规模_1000-5000人 <= 0.5\nsquared_error = 0.0\nsamples = 17\nvalue = 2.408", fillcolor="#f3c5a3"] ;
428 -> 429 ;
430 [label="公司标签_物业管理/商业中心 <= 0.5\nsquared_error = 0.0\nsamples = 16\nvalue = 2.408", fillcolor="#f3c5a4"] ;
429 -> 430 ;
431 [label="公司规模_50-150人 <= 0.5\nsquared_error = 0.0\nsamples = 14\nvalue = 2.407", fillcolor="#f3c6a6"] ;
430 -> 431 ;
432 [label="公司规模_5000-10000人 <= 0.5\nsquared_error = 0.0\nsamples = 8\nvalue = 2.406", fillcolor="#f4c9aa"] ;
431 -> 432 ;
433 [label="公司标签_服装/纺织/皮革 <= 0.5\nsquared_error = 0.0\nsamples = 7\nvalue = 2.406", fillcolor="#f4caac"] ;
432 -> 433 ;
434 [label="公司标签_新能源 <= 0.5\nsquared_error = 0.0\nsamples = 6\nvalue = 2.405", fillcolor="#f4cbad"] ;
433 -> 434 ;
435 [label="公司标签_互联网/电子商务 <= 0.5\nsquared_error = 0.0\nsamples = 5\nvalue = 2.405", fillcolor="#f4ccaf"] ;
434 -> 435 ;
436 [label="公司规模_500-1000人 <= 0.5\nsquared_error = 0.0\nsamples = 4\nvalue = 2.404", fillcolor="#f5cdb1"] ;
435 -> 436 ;
437 [label="公司标签_制药/生物工程 <= 0.5\nsquared_error = 0.0\nsamples = 3\nvalue = 2.404", fillcolor="#f5ccaf"] ;
436 -> 437 ;
438 [label="squared_error = 0.0\nsamples = 2\nvalue = 2.404", fillcolor="#f5cdb1"] ;
437 -> 438 ;
439 [label="squared_error = 0.0\nsamples = 1\nvalue = 2.406", fillcolor="#f4caab"] ;
437 -> 439 ;
440 [label="squared_error = 0.0\nsamples = 1\nvalue = 2.402", fillcolor="#f6d1b7"] ;
436 -> 440 ;
441 [label="squared_error = -0.0\nsamples = 1\nvalue = 2.407", fillcolor="#f3c6a6"] ;
435 -> 441 ;
442 [label="squared_error = -0.0\nsamples = 1\nvalue = 2.407", fillcolor="#f3c6a6"] ;
434 -> 442 ;
443 [label="squared_error = 0.0\nsamples = 1\nvalue = 2.409", fillcolor="#f3c3a1"] ;
433 -> 443 ;
444 [label="squared_error = -0.0\nsamples = 1\nvalue = 2.41", fillcolor="#f2c19d"] ;
432 -> 444 ;
445 [label="公司标签_餐饮业 <= 0.5\nsquared_error = 0.0\nsamples = 6\nvalue = 2.409", fillcolor="#f3c3a1"] ;
431 -> 445 ;
446 [label="公司标签_房地产 <= 0.5\nsquared_error = 0.0\nsamples = 5\nvalue = 2.41", fillcolor="#f2c29f"] ;
445 -> 446 ;
447 [label="公司标签_制药/生物工程 <= 0.5\nsquared_error = 0.0\nsamples = 4\nvalue = 2.41", fillcolor="#f2c19e"] ;
446 -> 447 ;
448 [label="squared_error = 0.0\nsamples = 3\nvalue = 2.41", fillcolor="#f2c19e"] ;
447 -> 448 ;
449 [label="squared_error = 0.0\nsamples = 1\nvalue = 2.41", fillcolor="#f2c19d"] ;
447 -> 449 ;
450 [label="squared_error = 0.0\nsamples = 1\nvalue = 2.409", fillcolor="#f3c3a1"] ;
446 -> 450 ;
451 [label="squared_error = -0.0\nsamples = 1\nvalue = 2.406", fillcolor="#f4caab"] ;
445 -> 451 ;
452 [label="公司规模_50-150人 <= 0.5\nsquared_error = 0.0\nsamples = 2\nvalue = 2.412", fillcolor="#f1bd98"] ;
430 -> 452 ;
453 [label="squared_error = 0.0\nsamples = 1\nvalue = 2.427", fillcolor="#eb9d66"] ;
452 -> 453 ;
454 [label="squared_error = 0.0\nsamples = 1\nvalue = 2.396", fillcolor="#f8ddc9"] ;
452 -> 454 ;
455 [label="squared_error = 0.0\nsamples = 1\nvalue = 2.414", fillcolor="#f1b992"] ;
429 -> 455 ;
456 [label="squared_error = -0.0\nsamples = 1\nvalue = 2.4", fillcolor="#f6d5be"] ;
428 -> 456 ;
457 [label="公司类型_民营 <= 0.5\nsquared_error = 0.0\nsamples = 6\nvalue = 2.413", fillcolor="#f1bb95"] ;
381 -> 457 ;
458 [label="公司类型_国企 <= 0.5\nsquared_error = 0.0\nsamples = 3\nvalue = 2.403", fillcolor="#f5d0b5"] ;
457 -> 458 ;
459 [label="公司规模_1000-5000人 <= 0.5\nsquared_error = 0.0\nsamples = 2\nvalue = 2.401", fillcolor="#f6d3ba"] ;
458 -> 459 ;
460 [label="squared_error = 0.0\nsamples = 1\nvalue = 2.4", fillcolor="#f6d5be"] ;
459 -> 460 ;
461 [label="squared_error = 0.0\nsamples = 1\nvalue = 2.402", fillcolor="#f6d1b7"] ;
459 -> 461 ;
462 [label="squared_error = -0.0\nsamples = 1\nvalue = 2.406", fillcolor="#f4caab"] ;
458 -> 462 ;
463 [label="公司规模_50-150人 <= 0.5\nsquared_error = 0.0\nsamples = 3\nvalue = 2.423", fillcolor="#eda674"] ;
457 -> 463 ;
464 [label="地区_三线 <= 0.5\nsquared_error = 0.0\nsamples = 2\nvalue = 2.421", fillcolor="#edaa79"] ;
463 -> 464 ;
465 [label="squared_error = 0.0\nsamples = 1\nvalue = 2.422", fillcolor="#eda978"] ;
464 -> 465 ;
466 [label="squared_error = -0.0\nsamples = 1\nvalue = 2.421", fillcolor="#edaa7a"] ;
464 -> 466 ;
467 [label="squared_error = 0.0\nsamples = 1\nvalue = 2.426", fillcolor="#eba06a"] ;
463 -> 467 ;
468 [label="地区_三线 <= 0.5\nsquared_error = 0.0\nsamples = 2\nvalue = 2.395", fillcolor="#f9e0ce"] ;
380 -> 468 ;
469 [label="squared_error = 0.0\nsamples = 1\nvalue = 2.398", fillcolor="#f7dac5"] ;
468 -> 469 ;
470 [label="squared_error = -0.0\nsamples = 1\nvalue = 2.392", fillcolor="#fae6d7"] ;
468 -> 470 ;
471 [label="squared_error = -0.0\nsamples = 1\nvalue = 2.385", fillcolor="#fdf5ef"] ;
379 -> 471 ;
472 [label="公司类型_民营 <= 0.5\nsquared_error = 0.0\nsamples = 12\nvalue = 2.415", fillcolor="#f0b78d"] ;
378 -> 472 ;
473 [label="squared_error = 0.0\nsamples = 4\nvalue = 2.411", fillcolor="#f2bf9a"] ;
472 -> 473 ;
474 [label="地区_三线 <= 0.5\nsquared_error = 0.0\nsamples = 8\nvalue = 2.417", fillcolor="#efb287"] ;
472 -> 474 ;
475 [label="学历要求_硕士 <= 0.5\nsquared_error = 0.0\nsamples = 2\nvalue = 2.416", fillcolor="#f0b48a"] ;
474 -> 475 ;
476 [label="squared_error = 0.0\nsamples = 1\nvalue = 2.415", fillcolor="#f0b58b"] ;
475 -> 476 ;
477 [label="squared_error = 0.0\nsamples = 1\nvalue = 2.416", fillcolor="#efb488"] ;
475 -> 477 ;
478 [label="公司规模_少于50人 <= 0.5\nsquared_error = 0.0\nsamples = 6\nvalue = 2.417", fillcolor="#efb286"] ;
474 -> 478 ;
479 [label="squared_error = 0.0\nsamples = 4\nvalue = 2.417", fillcolor="#efb287"] ;
478 -> 479 ;
480 [label="squared_error = 0.0\nsamples = 2\nvalue = 2.418", fillcolor="#efb084"] ;
478 -> 480 ;
481 [label="学历要求_本科 <= 0.5\nsquared_error = 0.0\nsamples = 4\nvalue = 2.423", fillcolor="#eda775"] ;
377 -> 481 ;
482 [label="squared_error = 0.0\nsamples = 1\nvalue = 2.415", fillcolor="#f0b58b"] ;
481 -> 482 ;
483 [label="地区_二线 <= 0.5\nsquared_error = 0.0\nsamples = 3\nvalue = 2.425", fillcolor="#eca26d"] ;
481 -> 483 ;
484 [label="squared_error = 0.0\nsamples = 1\nvalue = 2.426", fillcolor="#eba06a"] ;
483 -> 484 ;
485 [label="squared_error = -0.0\nsamples = 2\nvalue = 2.424", fillcolor="#eca36f"] ;
483 -> 485 ;
486 [label="公司标签_互联网/电子商务 <= 0.5\nsquared_error = 0.0\nsamples = 40\nvalue = 2.416", fillcolor="#f0b58a"] ;
376 -> 486 ;
487 [label="公司标签_餐饮业 <= 0.5\nsquared_error = 0.0\nsamples = 36\nvalue = 2.415", fillcolor="#f0b78d"] ;
486 -> 487 ;
488 [label="学历要求_本科 <= 0.5\nsquared_error = 0.0\nsamples = 35\nvalue = 2.415", fillcolor="#f0b68c"] ;
487 -> 488 ;
489 [label="公司规模_1000-5000人 <= 0.5\nsquared_error = 0.0\nsamples = 3\nvalue = 2.424", fillcolor="#eca470"] ;
488 -> 489 ;
490 [label="公司规模_150-500人 <= 0.5\nsquared_error = 0.0\nsamples = 2\nvalue = 2.422", fillcolor="#eda876"] ;
489 -> 490 ;
491 [label="squared_error = 0.0\nsamples = 1\nvalue = 2.421", fillcolor="#edaa7a"] ;
490 -> 491 ;
492 [label="squared_error = 0.0\nsamples = 1\nvalue = 2.423", fillcolor="#eca572"] ;
490 -> 492 ;
493 [label="squared_error = -0.0\nsamples = 1\nvalue = 2.428", fillcolor="#eb9c63"] ;
489 -> 493 ;
494 [label="公司标签_医疗/护理/卫生 <= 0.5\nsquared_error = 0.0\nsamples = 32\nvalue = 2.415", fillcolor="#f0b78e"] ;
488 -> 494 ;
495 [label="公司标签_快速消费品(食品、饮料、化妆品) <= 0.5\nsquared_error = 0.0\nsamples = 31\nvalue = 2.414", fillcolor="#f0b890"] ;
494 -> 495 ;
496 [label="公司标签_仪器仪表/工业自动化 <= 0.5\nsquared_error = 0.0\nsamples = 30\nvalue = 2.414", fillcolor="#f1b991"] ;
495 -> 496 ;
497 [label="公司类型_外资（非欧美） <= 0.5\nsquared_error = 0.0\nsamples = 25\nvalue = 2.413", fillcolor="#f1bb94"] ;
496 -> 497 ;
498 [label="公司标签_专业服务(咨询、人力资源、财会) <= 0.5\nsquared_error = 0.0\nsamples = 24\nvalue = 2.413", fillcolor="#f1ba92"] ;
497 -> 498 ;
499 [label="公司标签_通信/电信/网络设备 <= 0.5\nsquared_error = 0.0\nsamples = 23\nvalue = 2.413", fillcolor="#f1bb94"] ;
498 -> 499 ;
500 [label="公司标签_制药/生物工程 <= 0.5\nsquared_error = 0.0\nsamples = 22\nvalue = 2.412", fillcolor="#f1bc95"] ;
499 -> 500 ;
501 [label="公司标签_房地产 <= 0.5\nsquared_error = 0.0\nsamples = 20\nvalue = 2.412", fillcolor="#f1bd97"] ;
500 -> 501 ;
502 [label="公司标签_建筑/建材/工程 <= 0.5\nsquared_error = 0.0\nsamples = 18\nvalue = 2.411", fillcolor="#f2be99"] ;
501 -> 502 ;
503 [label="公司规模_1000-5000人 <= 0.5\nsquared_error = 0.0\nsamples = 16\nvalue = 2.41", fillcolor="#f2c09c"] ;
502 -> 503 ;
504 [label="公司标签_金融/投资/证券 <= 0.5\nsquared_error = 0.0\nsamples = 15\nvalue = 2.41", fillcolor="#f2c19d"] ;
503 -> 504 ;
505 [label="公司标签_电子技术/半导体/集成电路 <= 0.5\nsquared_error = 0.0\nsamples = 13\nvalue = 2.409", fillcolor="#f2c29f"] ;
504 -> 505 ;
506 [label="公司类型_已上市 <= 0.5\nsquared_error = 0.0\nsamples = 11\nvalue = 2.409", fillcolor="#f3c3a1"] ;
505 -> 506 ;
507 [label="公司规模_少于50人 <= 0.5\nsquared_error = 0.0\nsamples = 9\nvalue = 2.408", fillcolor="#f3c5a3"] ;
506 -> 507 ;
508 [label="公司规模_50-150人 <= 0.5\nsquared_error = 0.0\nsamples = 7\nvalue = 2.407", fillcolor="#f3c6a6"] ;
507 -> 508 ;
509 [label="公司类型_国企 <= 0.5\nsquared_error = 0.0\nsamples = 5\nvalue = 2.407", fillcolor="#f4c8a8"] ;
508 -> 509 ;
510 [label="公司标签_物业管理/商业中心 <= 0.5\nsquared_error = 0.0\nsamples = 4\nvalue = 2.406", fillcolor="#f4c9aa"] ;
509 -> 510 ;
511 [label="squared_error = -0.0\nsamples = 3\nvalue = 2.406", fillcolor="#f4caab"] ;
510 -> 511 ;
512 [label="squared_error = 0.0\nsamples = 1\nvalue = 2.407", fillcolor="#f3c6a6"] ;
510 -> 512 ;
513 [label="squared_error = -0.0\nsamples = 1\nvalue = 2.409", fillcolor="#f3c3a1"] ;
509 -> 513 ;
514 [label="公司标签_服装/纺织/皮革 <= 0.5\nsquared_error = 0.0\nsamples = 2\nvalue = 2.409", fillcolor="#f2c29f"] ;
508 -> 514 ;
515 [label="squared_error = 0.0\nsamples = 1\nvalue = 2.409", fillcolor="#f3c3a1"] ;
514 -> 515 ;
516 [label="squared_error = 0.0\nsamples = 1\nvalue = 2.41", fillcolor="#f2c19d"] ;
514 -> 516 ;
517 [label="squared_error = 0.0\nsamples = 2\nvalue = 2.411", fillcolor="#f2c09b"] ;
507 -> 517 ;
518 [label="公司标签_计算机软件 <= 0.5\nsquared_error = 0.0\nsamples = 2\nvalue = 2.411", fillcolor="#f2be99"] ;
506 -> 518 ;
519 [label="squared_error = 0.0\nsamples = 1\nvalue = 2.411", fillcolor="#f2be99"] ;
518 -> 519 ;
520 [label="squared_error = 0.0\nsamples = 1\nvalue = 2.411", fillcolor="#f2be99"] ;
518 -> 520 ;
521 [label="squared_error = 0.0\nsamples = 2\nvalue = 2.413", fillcolor="#f1bb95"] ;
505 -> 521 ;
522 [label="公司规模_50-150人 <= 0.5\nsquared_error = 0.0\nsamples = 2\nvalue = 2.414", fillcolor="#f0b88f"] ;
504 -> 522 ;
523 [label="squared_error = 0.0\nsamples = 1\nvalue = 2.412", fillcolor="#f1bc95"] ;
522 -> 523 ;
524 [label="squared_error = -0.0\nsamples = 1\nvalue = 2.416", fillcolor="#efb488"] ;
522 -> 524 ;
525 [label="squared_error = 0.0\nsamples = 1\nvalue = 2.418", fillcolor="#efb083"] ;
503 -> 525 ;
526 [label="公司规模_50-150人 <= 0.5\nsquared_error = 0.0\nsamples = 2\nvalue = 2.417", fillcolor="#efb388"] ;
502 -> 526 ;
527 [label="squared_error = 0.0\nsamples = 1\nvalue = 2.431", fillcolor="#e99558"] ;
526 -> 527 ;
528 [label="squared_error = 0.0\nsamples = 1\nvalue = 2.402", fillcolor="#f6d1b7"] ;
526 -> 528 ;
529 [label="公司规模_10000人以上 <= 0.5\nsquared_error = 0.0\nsamples = 2\nvalue = 2.418", fillcolor="#efb082"] ;
501 -> 529 ;
530 [label="squared_error = 0.0\nsamples = 1\nvalue = 2.416", fillcolor="#efb488"] ;
529 -> 530 ;
531 [label="squared_error = 0.0\nsamples = 1\nvalue = 2.42", fillcolor="#eeac7c"] ;
529 -> 531 ;
532 [label="公司规模_50-150人 <= 0.5\nsquared_error = 0.0\nsamples = 2\nvalue = 2.418", fillcolor="#efaf82"] ;
500 -> 532 ;
533 [label="squared_error = 0.0\nsamples = 1\nvalue = 2.418", fillcolor="#efb083"] ;
532 -> 533 ;
534 [label="squared_error = 0.0\nsamples = 1\nvalue = 2.419", fillcolor="#eeae80"] ;
532 -> 534 ;
535 [label="squared_error = 0.0\nsamples = 1\nvalue = 2.422", fillcolor="#eda978"] ;
499 -> 535 ;
536 [label="squared_error = -0.0\nsamples = 1\nvalue = 2.423", fillcolor="#eca572"] ;
498 -> 536 ;
537 [label="squared_error = 0.0\nsamples = 1\nvalue = 2.404", fillcolor="#f5cdb1"] ;
497 -> 537 ;
538 [label="公司规模_500-1000人 <= 0.5\nsquared_error = 0.0\nsamples = 5\nvalue = 2.418", fillcolor="#efb083"] ;
496 -> 538 ;
539 [label="squared_error = 0.0\nsamples = 1\nvalue = 2.428", fillcolor="#eb9c63"] ;
538 -> 539 ;
540 [label="公司类型_外资（欧美） <= 0.5\nsquared_error = 0.0\nsamples = 4\nvalue = 2.416", fillcolor="#f0b58b"] ;
538 -> 540 ;
541 [label="squared_error = 0.0\nsamples = 3\nvalue = 2.417", fillcolor="#efb287"] ;
540 -> 541 ;
542 [label="squared_error = -0.0\nsamples = 1\nvalue = 2.411", fillcolor="#f2be99"] ;
540 -> 542 ;
543 [label="squared_error = -0.0\nsamples = 1\nvalue = 2.425", fillcolor="#eca26d"] ;
495 -> 543 ;
544 [label="squared_error = 0.0\nsamples = 1\nvalue = 2.427", fillcolor="#eb9d66"] ;
494 -> 544 ;
545 [label="squared_error = -0.0\nsamples = 1\nvalue = 2.398", fillcolor="#f7dac5"] ;
487 -> 545 ;
546 [label="公司规模_150-500人 <= 0.5\nsquared_error = 0.0\nsamples = 4\nvalue = 2.425", fillcolor="#eca16b"] ;
486 -> 546 ;
547 [label="公司类型_民营 <= 0.5\nsquared_error = 0.0\nsamples = 3\nvalue = 2.42", fillcolor="#eeab7c"] ;
546 -> 547 ;
548 [label="squared_error = 0.0\nsamples = 1\nvalue = 2.426", fillcolor="#eba06a"] ;
547 -> 548 ;
549 [label="squared_error = 0.0\nsamples = 2\nvalue = 2.418", fillcolor="#efb184"] ;
547 -> 549 ;
550 [label="squared_error = -0.0\nsamples = 1\nvalue = 2.441", fillcolor="#e58139"] ;
546 -> 550 ;
551 [label="公司标签_建筑/建材/工程 <= 0.5\nsquared_error = 0.0\nsamples = 57\nvalue = 2.406", fillcolor="#f4c9aa"] ;
375 -> 551 ;
552 [label="地区_二线 <= 0.5\nsquared_error = 0.0\nsamples = 49\nvalue = 2.404", fillcolor="#f5cdb0"] ;
551 -> 552 ;
553 [label="公司标签_服装/纺织/皮革 <= 0.5\nsquared_error = 0.0\nsamples = 43\nvalue = 2.405", fillcolor="#f4cbad"] ;
552 -> 553 ;
554 [label="公司标签_酒店/旅游 <= 0.5\nsquared_error = 0.0\nsamples = 42\nvalue = 2.405", fillcolor="#f4cbae"] ;
553 -> 554 ;
555 [label="公司标签_制药/生物工程 <= 0.5\nsquared_error = 0.0\nsamples = 37\nvalue = 2.406", fillcolor="#f4caab"] ;
554 -> 555 ;
556 [label="公司规模_150-500人 <= 0.5\nsquared_error = 0.0\nsamples = 35\nvalue = 2.406", fillcolor="#f4c9aa"] ;
555 -> 556 ;
557 [label="公司标签_批发/零售 <= 0.5\nsquared_error = 0.0\nsamples = 26\nvalue = 2.405", fillcolor="#f4ccae"] ;
556 -> 557 ;
558 [label="公司标签_快速消费品(食品、饮料、化妆品) <= 0.5\nsquared_error = 0.0\nsamples = 25\nvalue = 2.405", fillcolor="#f4cbad"] ;
557 -> 558 ;
559 [label="地区_三线 <= 0.5\nsquared_error = 0.0\nsamples = 24\nvalue = 2.405", fillcolor="#f4ccae"] ;
558 -> 559 ;
560 [label="公司标签_物业管理/商业中心 <= 0.5\nsquared_error = 0.0\nsamples = 14\nvalue = 2.406", fillcolor="#f4c9aa"] ;
559 -> 560 ;
561 [label="公司规模_50-150人 <= 0.5\nsquared_error = 0.0\nsamples = 13\nvalue = 2.405", fillcolor="#f4caac"] ;
560 -> 561 ;
562 [label="公司标签_互联网/电子商务 <= 0.5\nsquared_error = 0.0\nsamples = 7\nvalue = 2.408", fillcolor="#f3c5a4"] ;
561 -> 562 ;
563 [label="公司标签_计算机软件 <= 0.5\nsquared_error = 0.0\nsamples = 5\nvalue = 2.41", fillcolor="#f2c19d"] ;
562 -> 563 ;
564 [label="公司类型_民营 <= 0.5\nsquared_error = 0.0\nsamples = 4\nvalue = 2.411", fillcolor="#f2bf9a"] ;
563 -> 564 ;
565 [label="squared_error = 0.0\nsamples = 2\nvalue = 2.409", fillcolor="#f3c4a2"] ;
564 -> 565 ;
566 [label="squared_error = 0.0\nsamples = 2\nvalue = 2.413", fillcolor="#f1ba92"] ;
564 -> 566 ;
567 [label="squared_error = 0.0\nsamples = 1\nvalue = 2.406", fillcolor="#f4caab"] ;
563 -> 567 ;
568 [label="公司规模_少于50人 <= 0.5\nsquared_error = 0.0\nsamples = 2\nvalue = 2.402", fillcolor="#f5d0b6"] ;
562 -> 568 ;
569 [label="squared_error = 0.0\nsamples = 1\nvalue = 2.407", fillcolor="#f3c6a6"] ;
568 -> 569 ;
570 [label="squared_error = -0.0\nsamples = 1\nvalue = 2.398", fillcolor="#f7dac5"] ;
568 -> 570 ;
571 [label="公司标签_互联网/电子商务 <= 0.5\nsquared_error = 0.0\nsamples = 6\nvalue = 2.403", fillcolor="#f5d0b5"] ;
561 -> 571 ;
572 [label="公司标签_计算机软件 <= 0.5\nsquared_error = 0.0\nsamples = 4\nvalue = 2.399", fillcolor="#f7d8c2"] ;
571 -> 572 ;
573 [label="公司标签_房地产 <= 0.5\nsquared_error = 0.0\nsamples = 3\nvalue = 2.398", fillcolor="#f7dac5"] ;
572 -> 573 ;
574 [label="公司标签_石油/化工/矿产/地质 <= 0.5\nsquared_error = 0.0\nsamples = 2\nvalue = 2.397", fillcolor="#f8dcc7"] ;
573 -> 574 ;
575 [label="squared_error = 0.0\nsamples = 1\nvalue = 2.396", fillcolor="#f8ddc9"] ;
574 -> 575 ;
576 [label="squared_error = 0.0\nsamples = 1\nvalue = 2.398", fillcolor="#f7dac5"] ;
574 -> 576 ;
577 [label="squared_error = -0.0\nsamples = 1\nvalue = 2.399", fillcolor="#f7d8c1"] ;
573 -> 577 ;
578 [label="squared_error = 0.0\nsamples = 1\nvalue = 2.402", fillcolor="#f6d1b7"] ;
572 -> 578 ;
579 [label="squared_error = 0.0\nsamples = 2\nvalue = 2.41", fillcolor="#f2c09d"] ;
571 -> 579 ;
580 [label="squared_error = 0.0\nsamples = 1\nvalue = 2.415", fillcolor="#f0b58b"] ;
560 -> 580 ;
581 [label="公司标签_计算机软件 <= 0.5\nsquared_error = 0.0\nsamples = 10\nvalue = 2.403", fillcolor="#f5cfb4"] ;
559 -> 581 ;
582 [label="公司标签_电子技术/半导体/集成电路 <= 0.5\nsquared_error = 0.0\nsamples = 9\nvalue = 2.401", fillcolor="#f6d3b9"] ;
581 -> 582 ;
583 [label="公司标签_专业服务(咨询、人力资源、财会) <= 0.5\nsquared_error = 0.0\nsamples = 8\nvalue = 2.401", fillcolor="#f6d4bc"] ;
582 -> 583 ;
584 [label="公司类型_合资 <= 0.5\nsquared_error = 0.0\nsamples = 6\nvalue = 2.399", fillcolor="#f7d7c0"] ;
583 -> 584 ;
585 [label="公司标签_物业管理/商业中心 <= 0.5\nsquared_error = 0.0\nsamples = 5\nvalue = 2.399", fillcolor="#f7d8c1"] ;
584 -> 585 ;
586 [label="公司规模_1000-5000人 <= 0.5\nsquared_error = 0.0\nsamples = 4\nvalue = 2.4", fillcolor="#f6d5bd"] ;
585 -> 586 ;
587 [label="公司规模_500-1000人 <= 0.5\nsquared_error = 0.0\nsamples = 3\nvalue = 2.4", fillcolor="#f7d6bf"] ;
586 -> 587 ;
588 [label="公司标签_仪器仪表/工业自动化 <= 0.5\nsquared_error = 0.0\nsamples = 2\nvalue = 2.4", fillcolor="#f6d5be"] ;
587 -> 588 ;
589 [label="squared_error = 0.0\nsamples = 1\nvalue = 2.4", fillcolor="#f6d5be"] ;
588 -> 589 ;
590 [label="squared_error = 0.0\nsamples = 1\nvalue = 2.4", fillcolor="#f6d5be"] ;
588 -> 590 ;
591 [label="squared_error = -0.0\nsamples = 1\nvalue = 2.399", fillcolor="#f7d8c1"] ;
587 -> 591 ;
592 [label="squared_error = -0.0\nsamples = 1\nvalue = 2.402", fillcolor="#f6d1b7"] ;
586 -> 592 ;
593 [label="squared_error = -0.0\nsamples = 1\nvalue = 2.394", fillcolor="#f9e3d2"] ;
585 -> 593 ;
594 [label="squared_error = 0.0\nsamples = 1\nvalue = 2.402", fillcolor="#f6d1b7"] ;
584 -> 594 ;
595 [label="squared_error = 0.0\nsamples = 2\nvalue = 2.404", fillcolor="#f5cdb1"] ;
583 -> 595 ;
596 [label="squared_error = 0.0\nsamples = 1\nvalue = 2.407", fillcolor="#f3c6a6"] ;
582 -> 596 ;
597 [label="squared_error = -0.0\nsamples = 1\nvalue = 2.418", fillcolor="#efb083"] ;
581 -> 597 ;
598 [label="squared_error = 0.0\nsamples = 1\nvalue = 2.415", fillcolor="#f0b78e"] ;
558 -> 598 ;
599 [label="squared_error = 0.0\nsamples = 1\nvalue = 2.395", fillcolor="#f9e0ce"] ;
557 -> 599 ;
600 [label="公司标签_专业服务(咨询、人力资源、财会) <= 0.5\nsquared_error = 0.0\nsamples = 9\nvalue = 2.41", fillcolor="#f2c29e"] ;
556 -> 600 ;
601 [label="公司类型_民营 <= 0.5\nsquared_error = 0.0\nsamples = 8\nvalue = 2.408", fillcolor="#f3c5a4"] ;
600 -> 601 ;
602 [label="公司标签_教育/培训/院校 <= 0.5\nsquared_error = 0.0\nsamples = 4\nvalue = 2.405", fillcolor="#f4cbad"] ;
601 -> 602 ;
603 [label="地区_三线 <= 0.5\nsquared_error = 0.0\nsamples = 3\nvalue = 2.406", fillcolor="#f4caab"] ;
602 -> 603 ;
604 [label="squared_error = 0.0\nsamples = 1\nvalue = 2.405", fillcolor="#f4caac"] ;
603 -> 604 ;
605 [label="squared_error = 0.0\nsamples = 2\nvalue = 2.406", fillcolor="#f4caab"] ;
603 -> 605 ;
606 [label="squared_error = 0.0\nsamples = 1\nvalue = 2.404", fillcolor="#f5cdb1"] ;
602 -> 606 ;
607 [label="公司标签_餐饮业 <= 0.5\nsquared_error = 0.0\nsamples = 4\nvalue = 2.41", fillcolor="#f2c09c"] ;
601 -> 607 ;
608 [label="公司标签_房地产 <= 0.5\nsquared_error = 0.0\nsamples = 2\nvalue = 2.409", fillcolor="#f2c29f"] ;
607 -> 608 ;
609 [label="squared_error = 0.0\nsamples = 1\nvalue = 2.41", fillcolor="#f2c19d"] ;
608 -> 609 ;
610 [label="squared_error = 0.0\nsamples = 1\nvalue = 2.409", fillcolor="#f3c3a1"] ;
608 -> 610 ;
611 [label="squared_error = 0.0\nsamples = 2\nvalue = 2.412", fillcolor="#f1bd98"] ;
607 -> 611 ;
612 [label="squared_error = -0.0\nsamples = 1\nvalue = 2.424", fillcolor="#eca470"] ;
600 -> 612 ;
613 [label="公司规模_150-500人 <= 0.5\nsquared_error = 0.0\nsamples = 2\nvalue = 2.398", fillcolor="#f7dac5"] ;
555 -> 613 ;
614 [label="squared_error = 0.0\nsamples = 1\nvalue = 2.402", fillcolor="#f6d1b7"] ;
613 -> 614 ;
615 [label="squared_error = 0.0\nsamples = 1\nvalue = 2.394", fillcolor="#f9e3d2"] ;
613 -> 615 ;
616 [label="公司类型_外资（非欧美） <= 0.5\nsquared_error = 0.0\nsamples = 5\nvalue = 2.4", fillcolor="#f7d6be"] ;
554 -> 616 ;
617 [label="公司类型_国企 <= 0.5\nsquared_error = 0.0\nsamples = 4\nvalue = 2.397", fillcolor="#f8dcc9"] ;
616 -> 617 ;
618 [label="公司类型_合资 <= 0.5\nsquared_error = 0.0\nsamples = 3\nvalue = 2.394", fillcolor="#f9e1d0"] ;
617 -> 618 ;
619 [label="squared_error = 0.0\nsamples = 2\nvalue = 2.395", fillcolor="#f9e0ce"] ;
618 -> 619 ;
620 [label="squared_error = -0.0\nsamples = 1\nvalue = 2.394", fillcolor="#f9e3d2"] ;
618 -> 620 ;
621 [label="squared_error = 0.0\nsamples = 1\nvalue = 2.403", fillcolor="#f5cfb4"] ;
617 -> 621 ;
622 [label="squared_error = -0.0\nsamples = 1\nvalue = 2.412", fillcolor="#f1bc95"] ;
616 -> 622 ;
623 [label="squared_error = 0.0\nsamples = 1\nvalue = 2.42", fillcolor="#eeac7c"] ;
553 -> 623 ;
624 [label="公司标签_专业服务(咨询、人力资源、财会) <= 0.5\nsquared_error = 0.0\nsamples = 6\nvalue = 2.397", fillcolor="#f8dcc8"] ;
552 -> 624 ;
625 [label="公司规模_少于50人 <= 0.5\nsquared_error = 0.0\nsamples = 5\nvalue = 2.394", fillcolor="#f9e1d0"] ;
624 -> 625 ;
626 [label="squared_error = 0.0\nsamples = 1\nvalue = 2.387", fillcolor="#fcf1e9"] ;
625 -> 626 ;
627 [label="公司标签_酒店/旅游 <= 0.5\nsquared_error = 0.0\nsamples = 4\nvalue = 2.396", fillcolor="#f8ddc9"] ;
625 -> 627 ;
628 [label="公司标签_仪器仪表/工业自动化 <= 0.5\nsquared_error = 0.0\nsamples = 3\nvalue = 2.394", fillcolor="#f9e1cf"] ;
627 -> 628 ;
629 [label="squared_error = 0.0\nsamples = 2\nvalue = 2.395", fillcolor="#f9e0ce"] ;
628 -> 629 ;
630 [label="squared_error = -0.0\nsamples = 1\nvalue = 2.394", fillcolor="#f9e3d2"] ;
628 -> 630 ;
631 [label="squared_error = 0.0\nsamples = 1\nvalue = 2.402", fillcolor="#f6d1b7"] ;
627 -> 631 ;
632 [label="squared_error = 0.0\nsamples = 1\nvalue = 2.409", fillcolor="#f3c3a1"] ;
624 -> 632 ;
633 [label="公司规模_50-150人 <= 0.5\nsquared_error = 0.0\nsamples = 8\nvalue = 2.417", fillcolor="#efb388"] ;
551 -> 633 ;
634 [label="公司规模_500-1000人 <= 0.5\nsquared_error = 0.0\nsamples = 3\nvalue = 2.398", fillcolor="#f7dac4"] ;
633 -> 634 ;
635 [label="地区_一线 <= 0.5\nsquared_error = 0.0\nsamples = 2\nvalue = 2.399", fillcolor="#f7d7c0"] ;
634 -> 635 ;
636 [label="squared_error = 0.0\nsamples = 1\nvalue = 2.4", fillcolor="#f6d5be"] ;
635 -> 636 ;
637 [label="squared_error = 0.0\nsamples = 1\nvalue = 2.399", fillcolor="#f7d8c1"] ;
635 -> 637 ;
638 [label="squared_error = -0.0\nsamples = 1\nvalue = 2.395", fillcolor="#f9e0ce"] ;
634 -> 638 ;
639 [label="squared_error = 0.0\nsamples = 5\nvalue = 2.428", fillcolor="#eb9c63"] ;
633 -> 639 ;
640 [label="学历要求_大专 <= 0.5\nsquared_error = 0.0\nsamples = 22\nvalue = 2.42", fillcolor="#eeac7c"] ;
2 -> 640 ;
641 [label="公司规模_50-150人 <= 0.5\nsquared_error = 0.0\nsamples = 16\nvalue = 2.423", fillcolor="#eda673"] ;
640 -> 641 ;
642 [label="公司类型_民营 <= 0.5\nsquared_error = 0.0\nsamples = 15\nvalue = 2.424", fillcolor="#eca571"] ;
641 -> 642 ;
643 [label="公司标签_多元化业务集团公司 <= 0.5\nsquared_error = 0.0\nsamples = 7\nvalue = 2.421", fillcolor="#eeab7b"] ;
642 -> 643 ;
644 [label="公司标签_电子技术/半导体/集成电路 <= 0.5\nsquared_error = 0.0\nsamples = 6\nvalue = 2.422", fillcolor="#eda877"] ;
643 -> 644 ;
645 [label="公司规模_1000-5000人 <= 0.5\nsquared_error = 0.0\nsamples = 5\nvalue = 2.423", fillcolor="#eda673"] ;
644 -> 645 ;
646 [label="公司标签_原材料和加工 <= 0.5\nsquared_error = 0.0\nsamples = 4\nvalue = 2.422", fillcolor="#eda876"] ;
645 -> 646 ;
647 [label="公司标签_建筑/建材/工程 <= 0.5\nsquared_error = 0.0\nsamples = 3\nvalue = 2.423", fillcolor="#eda674"] ;
646 -> 647 ;
648 [label="squared_error = 0.0\nsamples = 2\nvalue = 2.423", fillcolor="#eca572"] ;
647 -> 648 ;
649 [label="squared_error = -0.0\nsamples = 1\nvalue = 2.422", fillcolor="#eda978"] ;
647 -> 649 ;
650 [label="squared_error = -0.0\nsamples = 1\nvalue = 2.42", fillcolor="#eeac7c"] ;
646 -> 650 ;
651 [label="squared_error = 0.0\nsamples = 1\nvalue = 2.426", fillcolor="#eba06a"] ;
645 -> 651 ;
652 [label="squared_error = -0.0\nsamples = 1\nvalue = 2.416", fillcolor="#efb488"] ;
644 -> 652 ;
653 [label="squared_error = -0.0\nsamples = 1\nvalue = 2.413", fillcolor="#f1ba93"] ;
643 -> 653 ;
654 [label="地区_一线 <= 0.5\nsquared_error = 0.0\nsamples = 8\nvalue = 2.426", fillcolor="#eb9f69"] ;
642 -> 654 ;
655 [label="公司规模_1000-5000人 <= 0.5\nsquared_error = 0.0\nsamples = 3\nvalue = 2.423", fillcolor="#eca571"] ;
654 -> 655 ;
656 [label="公司规模_10000人以上 <= 0.5\nsquared_error = 0.0\nsamples = 2\nvalue = 2.423", fillcolor="#eca572"] ;
655 -> 656 ;
657 [label="squared_error = 0.0\nsamples = 1\nvalue = 2.423", fillcolor="#eca572"] ;
656 -> 657 ;
658 [label="squared_error = 0.0\nsamples = 1\nvalue = 2.423", fillcolor="#eca572"] ;
656 -> 658 ;
659 [label="squared_error = -0.0\nsamples = 1\nvalue = 2.424", fillcolor="#eca470"] ;
655 -> 659 ;
660 [label="公司标签_互联网/电子商务 <= 0.5\nsquared_error = 0.0\nsamples = 5\nvalue = 2.428", fillcolor="#eb9c63"] ;
654 -> 660 ;
661 [label="公司标签_专业服务(咨询、人力资源、财会) <= 0.5\nsquared_error = 0.0\nsamples = 4\nvalue = 2.429", fillcolor="#ea9a60"] ;
660 -> 661 ;
662 [label="公司标签_制药/生物工程 <= 0.5\nsquared_error = 0.0\nsamples = 3\nvalue = 2.428", fillcolor="#ea9b62"] ;
661 -> 662 ;
663 [label="公司标签_仪器仪表/工业自动化 <= 0.5\nsquared_error = 0.0\nsamples = 2\nvalue = 2.427", fillcolor="#eb9d64"] ;
662 -> 663 ;
664 [label="squared_error = 0.0\nsamples = 1\nvalue = 2.428", fillcolor="#eb9c63"] ;
663 -> 664 ;
665 [label="squared_error = -0.0\nsamples = 1\nvalue = 2.427", fillcolor="#eb9d66"] ;
663 -> 665 ;
666 [label="squared_error = 0.0\nsamples = 1\nvalue = 2.43", fillcolor="#ea985d"] ;
662 -> 666 ;
667 [label="squared_error = -0.0\nsamples = 1\nvalue = 2.431", fillcolor="#e99558"] ;
661 -> 667 ;
668 [label="squared_error = -0.0\nsamples = 1\nvalue = 2.423", fillcolor="#eca572"] ;
660 -> 668 ;
669 [label="squared_error = 0.0\nsamples = 1\nvalue = 2.415", fillcolor="#f0b78e"] ;
641 -> 669 ;
670 [label="公司标签_电子技术/半导体/集成电路 <= 0.5\nsquared_error = 0.0\nsamples = 6\nvalue = 2.413", fillcolor="#f1bb94"] ;
640 -> 670 ;
671 [label="公司规模_1000-5000人 <= 0.5\nsquared_error = 0.0\nsamples = 5\nvalue = 2.412", fillcolor="#f1bc96"] ;
670 -> 671 ;
672 [label="squared_error = 0.0\nsamples = 4\nvalue = 2.411", fillcolor="#f2be99"] ;
671 -> 672 ;
673 [label="squared_error = -0.0\nsamples = 1\nvalue = 2.415", fillcolor="#f0b58b"] ;
671 -> 673 ;
674 [label="squared_error = -0.0\nsamples = 1\nvalue = 2.416", fillcolor="#efb488"] ;
670 -> 674 ;
675 [label="学历要求_大专 <= 0.5\nsquared_error = 0.0\nsamples = 165\nvalue = 2.416", fillcolor="#f0b48a"] ;
1 -> 675 ;
676 [label="地区_一线 <= 0.5\nsquared_error = 0.0\nsamples = 113\nvalue = 2.418", fillcolor="#efb083"] ;
675 -> 676 ;
677 [label="公司标签_快速消费品(食品、饮料、化妆品) <= 0.5\nsquared_error = 0.0\nsamples = 68\nvalue = 2.416", fillcolor="#efb489"] ;
676 -> 677 ;
678 [label="公司类型_国企 <= 0.5\nsquared_error = 0.0\nsamples = 67\nvalue = 2.417", fillcolor="#efb388"] ;
677 -> 678 ;
679 [label="公司标签_专业服务(咨询、人力资源、财会) <= 0.5\nsquared_error = 0.0\nsamples = 57\nvalue = 2.415", fillcolor="#f0b68c"] ;
678 -> 679 ;
680 [label="公司标签_酒店/旅游 <= 0.5\nsquared_error = 0.0\nsamples = 54\nvalue = 2.415", fillcolor="#f0b78e"] ;
679 -> 680 ;
681 [label="公司标签_农/林/牧/渔 <= 0.5\nsquared_error = 0.0\nsamples = 53\nvalue = 2.415", fillcolor="#f0b68d"] ;
680 -> 681 ;
682 [label="公司标签_金融/投资/证券 <= 0.5\nsquared_error = 0.0\nsamples = 51\nvalue = 2.415", fillcolor="#f0b78e"] ;
681 -> 682 ;
683 [label="公司规模_1000-5000人 <= 0.5\nsquared_error = 0.0\nsamples = 48\nvalue = 2.414", fillcolor="#f0b890"] ;
682 -> 683 ;
684 [label="公司类型_合资 <= 0.5\nsquared_error = 0.0\nsamples = 31\nvalue = 2.412", fillcolor="#f1bc95"] ;
683 -> 684 ;
685 [label="地区_三线 <= 0.5\nsquared_error = 0.0\nsamples = 29\nvalue = 2.413", fillcolor="#f1ba93"] ;
684 -> 685 ;
686 [label="公司标签_互联网/电子商务 <= 0.5\nsquared_error = 0.0\nsamples = 14\nvalue = 2.411", fillcolor="#f2bf9b"] ;
685 -> 686 ;
687 [label="公司规模_少于50人 <= 0.5\nsquared_error = 0.0\nsamples = 12\nvalue = 2.409", fillcolor="#f3c3a0"] ;
686 -> 687 ;
688 [label="公司标签_医疗设备/器械 <= 0.5\nsquared_error = 0.0\nsamples = 11\nvalue = 2.41", fillcolor="#f2c19d"] ;
687 -> 688 ;
689 [label="公司规模_150-500人 <= 0.5\nsquared_error = 0.0\nsamples = 9\nvalue = 2.409", fillcolor="#f3c3a1"] ;
688 -> 689 ;
690 [label="公司类型_民营 <= 0.5\nsquared_error = 0.0\nsamples = 6\nvalue = 2.406", fillcolor="#f4c8a9"] ;
689 -> 690 ;
691 [label="squared_error = 0.0\nsamples = 1\nvalue = 2.411", fillcolor="#f2be99"] ;
690 -> 691 ;
692 [label="公司标签_仪器仪表/工业自动化 <= 0.5\nsquared_error = 0.0\nsamples = 5\nvalue = 2.405", fillcolor="#f4caac"] ;
690 -> 692 ;
693 [label="公司标签_制药/生物工程 <= 0.5\nsquared_error = 0.0\nsamples = 4\nvalue = 2.406", fillcolor="#f4c8a9"] ;
692 -> 693 ;
694 [label="公司标签_汽车 <= 0.5\nsquared_error = 0.0\nsamples = 3\nvalue = 2.407", fillcolor="#f3c7a7"] ;
693 -> 694 ;
695 [label="公司规模_500-1000人 <= 0.5\nsquared_error = 0.0\nsamples = 2\nvalue = 2.406", fillcolor="#f4c8a9"] ;
694 -> 695 ;
696 [label="squared_error = 0.0\nsamples = 1\nvalue = 2.404", fillcolor="#f5cdb1"] ;
695 -> 696 ;
697 [label="squared_error = -0.0\nsamples = 1\nvalue = 2.409", fillcolor="#f3c3a1"] ;
695 -> 697 ;
698 [label="squared_error = 0.0\nsamples = 1\nvalue = 2.409", fillcolor="#f3c3a1"] ;
694 -> 698 ;
699 [label="squared_error = 0.0\nsamples = 1\nvalue = 2.404", fillcolor="#f5cdb1"] ;
693 -> 699 ;
700 [label="squared_error = 0.0\nsamples = 1\nvalue = 2.402", fillcolor="#f6d1b7"] ;
692 -> 700 ;
701 [label="公司标签_机械/设备/重工 <= 0.5\nsquared_error = 0.0\nsamples = 3\nvalue = 2.414", fillcolor="#f1b991"] ;
689 -> 701 ;
702 [label="squared_error = 0.0\nsamples = 1\nvalue = 2.418", fillcolor="#efb083"] ;
701 -> 702 ;
703 [label="squared_error = 0.0\nsamples = 2\nvalue = 2.411", fillcolor="#f2be98"] ;
701 -> 703 ;
704 [label="squared_error = 0.0\nsamples = 2\nvalue = 2.415", fillcolor="#f0b68c"] ;
688 -> 704 ;
705 [label="squared_error = -0.0\nsamples = 1\nvalue = 2.398", fillcolor="#f7dac5"] ;
687 -> 705 ;
706 [label="公司规模_少于50人 <= 0.5\nsquared_error = 0.0\nsamples = 2\nvalue = 2.42", fillcolor="#eeac7c"] ;
686 -> 706 ;
707 [label="squared_error = 0.0\nsamples = 1\nvalue = 2.42", fillcolor="#eeac7c"] ;
706 -> 707 ;
708 [label="squared_error = 0.0\nsamples = 1\nvalue = 2.42", fillcolor="#eeac7c"] ;
706 -> 708 ;
709 [label="公司标签_批发/零售 <= 0.5\nsquared_error = 0.0\nsamples = 15\nvalue = 2.415", fillcolor="#f0b68c"] ;
685 -> 709 ;
710 [label="公司规模_150-500人 <= 0.5\nsquared_error = 0.0\nsamples = 14\nvalue = 2.415", fillcolor="#f0b78e"] ;
709 -> 710 ;
711 [label="公司标签_新能源 <= 0.5\nsquared_error = 0.0\nsamples = 9\nvalue = 2.416", fillcolor="#f0b489"] ;
710 -> 711 ;
712 [label="公司规模_少于50人 <= 0.5\nsquared_error = 0.0\nsamples = 8\nvalue = 2.417", fillcolor="#efb387"] ;
711 -> 712 ;
713 [label="公司标签_教育/培训/院校 <= 0.5\nsquared_error = 0.0\nsamples = 7\nvalue = 2.416", fillcolor="#efb489"] ;
712 -> 713 ;
714 [label="公司规模_500-1000人 <= 0.5\nsquared_error = 0.0\nsamples = 6\nvalue = 2.416", fillcolor="#f0b58b"] ;
713 -> 714 ;
715 [label="公司标签_物业管理/商业中心 <= 0.5\nsquared_error = 0.0\nsamples = 3\nvalue = 2.417", fillcolor="#efb387"] ;
714 -> 715 ;
716 [label="squared_error = 0.0\nsamples = 1\nvalue = 2.414", fillcolor="#f1b992"] ;
715 -> 716 ;
717 [label="公司类型_已上市 <= 0.5\nsquared_error = 0.0\nsamples = 2\nvalue = 2.418", fillcolor="#efb082"] ;
715 -> 717 ;
718 [label="squared_error = 0.0\nsamples = 1\nvalue = 2.42", fillcolor="#eeac7c"] ;
717 -> 718 ;
719 [label="squared_error = 0.0\nsamples = 1\nvalue = 2.416", fillcolor="#efb488"] ;
717 -> 719 ;
720 [label="公司类型_民营 <= 0.5\nsquared_error = 0.0\nsamples = 3\nvalue = 2.414", fillcolor="#f0b88f"] ;
714 -> 720 ;
721 [label="squared_error = 0.0\nsamples = 1\nvalue = 2.412", fillcolor="#f1bc95"] ;
720 -> 721 ;
722 [label="公司标签_服装/纺织/皮革 <= 0.5\nsquared_error = 0.0\nsamples = 2\nvalue = 2.415", fillcolor="#f0b58b"] ;
720 -> 722 ;
723 [label="squared_error = 0.0\nsamples = 1\nvalue = 2.416", fillcolor="#efb488"] ;
722 -> 723 ;
724 [label="squared_error = 0.0\nsamples = 1\nvalue = 2.415", fillcolor="#f0b78e"] ;
722 -> 724 ;
725 [label="squared_error = -0.0\nsamples = 1\nvalue = 2.42", fillcolor="#eeac7c"] ;
713 -> 725 ;
726 [label="squared_error = -0.0\nsamples = 1\nvalue = 2.42", fillcolor="#eeac7c"] ;
712 -> 726 ;
727 [label="squared_error = 0.0\nsamples = 1\nvalue = 2.411", fillcolor="#f2be99"] ;
711 -> 727 ;
728 [label="公司标签_机械/设备/重工 <= 0.5\nsquared_error = 0.0\nsamples = 5\nvalue = 2.412", fillcolor="#f1bd97"] ;
710 -> 728 ;
729 [label="公司标签_仪器仪表/工业自动化 <= 0.5\nsquared_error = 0.0\nsamples = 4\nvalue = 2.411", fillcolor="#f2bf9b"] ;
728 -> 729 ;
730 [label="squared_error = -0.0\nsamples = 3\nvalue = 2.409", fillcolor="#f3c3a1"] ;
729 -> 730 ;
731 [label="squared_error = -0.0\nsamples = 1\nvalue = 2.416", fillcolor="#efb488"] ;
729 -> 731 ;
732 [label="squared_error = 0.0\nsamples = 1\nvalue = 2.416", fillcolor="#efb488"] ;
728 -> 732 ;
733 [label="squared_error = -0.0\nsamples = 1\nvalue = 2.426", fillcolor="#eba06a"] ;
709 -> 733 ;
734 [label="公司标签_石油/化工/矿产/地质 <= 0.5\nsquared_error = 0.0\nsamples = 2\nvalue = 2.402", fillcolor="#f5d0b6"] ;
684 -> 734 ;
735 [label="squared_error = 0.0\nsamples = 1\nvalue = 2.407", fillcolor="#f3c6a6"] ;
734 -> 735 ;
736 [label="squared_error = -0.0\nsamples = 1\nvalue = 2.398", fillcolor="#f7dac5"] ;
734 -> 736 ;
737 [label="公司标签_汽车 <= 0.5\nsquared_error = 0.0\nsamples = 17\nvalue = 2.417", fillcolor="#efb286"] ;
683 -> 737 ;
738 [label="公司标签_计算机软件 <= 0.5\nsquared_error = 0.0\nsamples = 16\nvalue = 2.416", fillcolor="#efb489"] ;
737 -> 738 ;
739 [label="公司标签_石油/化工/矿产/地质 <= 0.5\nsquared_error = 0.0\nsamples = 14\nvalue = 2.415", fillcolor="#f0b68c"] ;
738 -> 739 ;
740 [label="公司类型_民营 <= 0.5\nsquared_error = 0.0\nsamples = 13\nvalue = 2.415", fillcolor="#f0b78e"] ;
739 -> 740 ;
741 [label="地区_三线 <= 0.5\nsquared_error = 0.0\nsamples = 6\nvalue = 2.413", fillcolor="#f1bb95"] ;
740 -> 741 ;
742 [label="squared_error = 0.0\nsamples = 1\nvalue = 2.42", fillcolor="#eeac7c"] ;
741 -> 742 ;
743 [label="公司类型_合资 <= 0.5\nsquared_error = 0.0\nsamples = 5\nvalue = 2.411", fillcolor="#f2be9a"] ;
741 -> 743 ;
744 [label="squared_error = 0.0\nsamples = 1\nvalue = 2.406", fillcolor="#f4caab"] ;
743 -> 744 ;
745 [label="squared_error = -0.0\nsamples = 4\nvalue = 2.412", fillcolor="#f1bc95"] ;
743 -> 745 ;
746 [label="公司标签_医疗/护理/卫生 <= 0.5\nsquared_error = 0.0\nsamples = 7\nvalue = 2.417", fillcolor="#efb388"] ;
740 -> 746 ;
747 [label="地区_二线 <= 0.5\nsquared_error = 0.0\nsamples = 6\nvalue = 2.417", fillcolor="#efb185"] ;
746 -> 747 ;
748 [label="公司标签_外包服务 <= 0.5\nsquared_error = 0.0\nsamples = 3\nvalue = 2.419", fillcolor="#efaf82"] ;
747 -> 748 ;
749 [label="squared_error = 0.0\nsamples = 2\nvalue = 2.418", fillcolor="#efb082"] ;
748 -> 749 ;
750 [label="squared_error = 0.0\nsamples = 1\nvalue = 2.419", fillcolor="#eeae80"] ;
748 -> 750 ;
751 [label="squared_error = 0.0\nsamples = 3\nvalue = 2.416", fillcolor="#efb488"] ;
747 -> 751 ;
752 [label="squared_error = -0.0\nsamples = 1\nvalue = 2.411", fillcolor="#f2be99"] ;
746 -> 752 ;
753 [label="squared_error = 0.0\nsamples = 1\nvalue = 2.423", fillcolor="#eca572"] ;
739 -> 753 ;
754 [label="地区_三线 <= 0.5\nsquared_error = 0.0\nsamples = 2\nvalue = 2.423", fillcolor="#eda774"] ;
738 -> 754 ;
755 [label="squared_error = 0.0\nsamples = 1\nvalue = 2.426", fillcolor="#eba06a"] ;
754 -> 755 ;
756 [label="squared_error = -0.0\nsamples = 1\nvalue = 2.42", fillcolor="#eead7e"] ;
754 -> 756 ;
757 [label="squared_error = -0.0\nsamples = 1\nvalue = 2.433", fillcolor="#e99254"] ;
737 -> 757 ;
758 [label="公司规模_50-150人 <= 0.5\nsquared_error = 0.0\nsamples = 3\nvalue = 2.422", fillcolor="#eda876"] ;
682 -> 758 ;
759 [label="squared_error = 0.0\nsamples = 1\nvalue = 2.426", fillcolor="#eba06a"] ;
758 -> 759 ;
760 [label="squared_error = 0.0\nsamples = 2\nvalue = 2.42", fillcolor="#eeac7c"] ;
758 -> 760 ;
761 [label="squared_error = -0.0\nsamples = 2\nvalue = 2.428", fillcolor="#eb9c63"] ;
681 -> 761 ;
762 [label="squared_error = -0.0\nsamples = 1\nvalue = 2.394", fillcolor="#f9e3d2"] ;
680 -> 762 ;
763 [label="公司规模_50-150人 <= 0.5\nsquared_error = 0.0\nsamples = 3\nvalue = 2.428", fillcolor="#ea9b63"] ;
679 -> 763 ;
764 [label="squared_error = 0.0\nsamples = 1\nvalue = 2.426", fillcolor="#eba06a"] ;
763 -> 764 ;
765 [label="squared_error = 0.0\nsamples = 2\nvalue = 2.429", fillcolor="#ea995f"] ;
763 -> 765 ;
766 [label="公司规模_150-500人 <= 0.5\nsquared_error = 0.0\nsamples = 10\nvalue = 2.424", fillcolor="#eca571"] ;
678 -> 766 ;
767 [label="学历要求_硕士 <= 0.5\nsquared_error = 0.0\nsamples = 4\nvalue = 2.419", fillcolor="#eeaf81"] ;
766 -> 767 ;
768 [label="公司规模_少于50人 <= 0.5\nsquared_error = 0.0\nsamples = 3\nvalue = 2.417", fillcolor="#efb286"] ;
767 -> 768 ;
769 [label="公司标签_物业管理/商业中心 <= 0.5\nsquared_error = 0.0\nsamples = 2\nvalue = 2.415", fillcolor="#f0b58b"] ;
768 -> 769 ;
770 [label="squared_error = 0.0\nsamples = 1\nvalue = 2.415", fillcolor="#f0b78e"] ;
769 -> 770 ;
771 [label="squared_error = 0.0\nsamples = 1\nvalue = 2.416", fillcolor="#efb488"] ;
769 -> 771 ;
772 [label="squared_error = -0.0\nsamples = 1\nvalue = 2.42", fillcolor="#eeac7c"] ;
768 -> 772 ;
773 [label="squared_error = -0.0\nsamples = 1\nvalue = 2.424", fillcolor="#eca470"] ;
767 -> 773 ;
774 [label="squared_error = 0.0\nsamples = 6\nvalue = 2.427", fillcolor="#eb9e67"] ;
766 -> 774 ;
775 [label="squared_error = -0.0\nsamples = 1\nvalue = 2.392", fillcolor="#fae6d7"] ;
677 -> 775 ;
776 [label="公司标签_制药/生物工程 <= 0.5\nsquared_error = 0.0\nsamples = 45\nvalue = 2.421", fillcolor="#edaa79"] ;
676 -> 776 ;
777 [label="公司类型_外资（非欧美） <= 0.5\nsquared_error = 0.0\nsamples = 44\nvalue = 2.421", fillcolor="#eeab7b"] ;
776 -> 777 ;
778 [label="公司标签_通信/电信/网络设备 <= 0.5\nsquared_error = 0.0\nsamples = 43\nvalue = 2.42", fillcolor="#eeac7c"] ;
777 -> 778 ;
779 [label="公司类型_事业单位 <= 0.5\nsquared_error = 0.0\nsamples = 42\nvalue = 2.42", fillcolor="#eeac7d"] ;
778 -> 779 ;
780 [label="公司标签_多元化业务集团公司 <= 0.5\nsquared_error = 0.0\nsamples = 41\nvalue = 2.42", fillcolor="#eead7e"] ;
779 -> 780 ;
781 [label="公司标签_仪器仪表/工业自动化 <= 0.5\nsquared_error = 0.0\nsamples = 39\nvalue = 2.419", fillcolor="#eeae80"] ;
780 -> 781 ;
782 [label="公司标签_专业服务(咨询、人力资源、财会) <= 0.5\nsquared_error = 0.0\nsamples = 38\nvalue = 2.419", fillcolor="#eeae80"] ;
781 -> 782 ;
783 [label="公司标签_农/林/牧/渔 <= 0.5\nsquared_error = 0.0\nsamples = 35\nvalue = 2.418", fillcolor="#efaf82"] ;
782 -> 783 ;
784 [label="公司标签_餐饮业 <= 0.5\nsquared_error = 0.0\nsamples = 34\nvalue = 2.418", fillcolor="#efb083"] ;
783 -> 784 ;
785 [label="公司类型_已上市 <= 0.5\nsquared_error = 0.0\nsamples = 30\nvalue = 2.418", fillcolor="#efb185"] ;
784 -> 785 ;
786 [label="公司标签_医疗设备/器械 <= 0.5\nsquared_error = 0.0\nsamples = 27\nvalue = 2.417", fillcolor="#efb286"] ;
785 -> 786 ;
787 [label="公司规模_少于50人 <= 0.5\nsquared_error = 0.0\nsamples = 24\nvalue = 2.417", fillcolor="#efb388"] ;
786 -> 787 ;
788 [label="公司规模_1000-5000人 <= 0.5\nsquared_error = 0.0\nsamples = 21\nvalue = 2.417", fillcolor="#efb286"] ;
787 -> 788 ;
789 [label="公司类型_国企 <= 0.5\nsquared_error = 0.0\nsamples = 19\nvalue = 2.418", fillcolor="#efb184"] ;
788 -> 789 ;
790 [label="公司标签_快速消费品(食品、饮料、化妆品) <= 0.5\nsquared_error = 0.0\nsamples = 15\nvalue = 2.418", fillcolor="#efaf82"] ;
789 -> 790 ;
791 [label="公司标签_电子技术/半导体/集成电路 <= 0.5\nsquared_error = 0.0\nsamples = 14\nvalue = 2.419", fillcolor="#eeae80"] ;
790 -> 791 ;
792 [label="公司类型_民营 <= 0.5\nsquared_error = 0.0\nsamples = 13\nvalue = 2.419", fillcolor="#eeaf81"] ;
791 -> 792 ;
793 [label="公司标签_新能源 <= 0.5\nsquared_error = 0.0\nsamples = 2\nvalue = 2.414", fillcolor="#f0b78f"] ;
792 -> 793 ;
794 [label="squared_error = 0.0\nsamples = 1\nvalue = 2.409", fillcolor="#f3c3a1"] ;
793 -> 794 ;
795 [label="squared_error = 0.0\nsamples = 1\nvalue = 2.42", fillcolor="#eeac7c"] ;
793 -> 795 ;
796 [label="公司规模_50-150人 <= 0.5\nsquared_error = 0.0\nsamples = 11\nvalue = 2.419", fillcolor="#eead7e"] ;
792 -> 796 ;
797 [label="公司标签_物业管理/商业中心 <= 0.5\nsquared_error = 0.0\nsamples = 8\nvalue = 2.42", fillcolor="#eeab7c"] ;
796 -> 797 ;
798 [label="公司标签_医疗/护理/卫生 <= 0.5\nsquared_error = 0.0\nsamples = 7\nvalue = 2.42", fillcolor="#eead7e"] ;
797 -> 798 ;
799 [label="公司规模_150-500人 <= 0.5\nsquared_error = 0.0\nsamples = 6\nvalue = 2.42", fillcolor="#eeac7c"] ;
798 -> 799 ;
800 [label="公司标签_建筑/建材/工程 <= 0.5\nsquared_error = 0.0\nsamples = 4\nvalue = 2.42", fillcolor="#eeab7b"] ;
799 -> 800 ;
801 [label="squared_error = 0.0\nsamples = 2\nvalue = 2.42", fillcolor="#eeac7c"] ;
800 -> 801 ;
802 [label="squared_error = 0.0\nsamples = 2\nvalue = 2.421", fillcolor="#eeab7b"] ;
800 -> 802 ;
803 [label="squared_error = 0.0\nsamples = 2\nvalue = 2.42", fillcolor="#eeac7d"] ;
799 -> 803 ;
804 [label="squared_error = -0.0\nsamples = 1\nvalue = 2.415", fillcolor="#f0b58b"] ;
798 -> 804 ;
805 [label="squared_error = 0.0\nsamples = 1\nvalue = 2.426", fillcolor="#eba06a"] ;
797 -> 805 ;
806 [label="公司标签_物业管理/商业中心 <= 0.5\nsquared_error = 0.0\nsamples = 3\nvalue = 2.417", fillcolor="#efb286"] ;
796 -> 806 ;
807 [label="公司标签_建筑/建材/工程 <= 0.5\nsquared_error = 0.0\nsamples = 2\nvalue = 2.419", fillcolor="#eeae80"] ;
806 -> 807 ;
808 [label="squared_error = 0.0\nsamples = 1\nvalue = 2.422", fillcolor="#eda978"] ;
807 -> 808 ;
809 [label="squared_error = 0.0\nsamples = 1\nvalue = 2.416", fillcolor="#efb488"] ;
807 -> 809 ;
810 [label="squared_error = 0.0\nsamples = 1\nvalue = 2.414", fillcolor="#f1b992"] ;
806 -> 810 ;
811 [label="squared_error = 0.0\nsamples = 1\nvalue = 2.423", fillcolor="#eda674"] ;
791 -> 811 ;
812 [label="squared_error = -0.0\nsamples = 1\nvalue = 2.411", fillcolor="#f2be99"] ;
790 -> 812 ;
813 [label="squared_error = 0.0\nsamples = 4\nvalue = 2.415", fillcolor="#f0b78e"] ;
789 -> 813 ;
814 [label="公司标签_建筑/建材/工程 <= 0.5\nsquared_error = 0.0\nsamples = 2\nvalue = 2.413", fillcolor="#f1bb95"] ;
788 -> 814 ;
815 [label="squared_error = 0.0\nsamples = 1\nvalue = 2.409", fillcolor="#f3c3a1"] ;
814 -> 815 ;
816 [label="squared_error = 0.0\nsamples = 1\nvalue = 2.416", fillcolor="#efb488"] ;
814 -> 816 ;
817 [label="公司标签_计算机软件 <= 0.5\nsquared_error = 0.0\nsamples = 3\nvalue = 2.413", fillcolor="#f1bb95"] ;
787 -> 817 ;
818 [label="squared_error = 0.0\nsamples = 2\nvalue = 2.412", fillcolor="#f1bd98"] ;
817 -> 818 ;
819 [label="squared_error = 0.0\nsamples = 1\nvalue = 2.415", fillcolor="#f0b78e"] ;
817 -> 819 ;
820 [label="公司规模_少于50人 <= 0.5\nsquared_error = 0.0\nsamples = 3\nvalue = 2.421", fillcolor="#eeaa7a"] ;
786 -> 820 ;
821 [label="公司类型_合资 <= 0.5\nsquared_error = 0.0\nsamples = 2\nvalue = 2.414", fillcolor="#f1b991"] ;
820 -> 821 ;
822 [label="squared_error = 0.0\nsamples = 1\nvalue = 2.416", fillcolor="#efb488"] ;
821 -> 822 ;
823 [label="squared_error = 0.0\nsamples = 1\nvalue = 2.411", fillcolor="#f2be99"] ;
821 -> 823 ;
824 [label="squared_error = 0.0\nsamples = 1\nvalue = 2.435", fillcolor="#e88d4c"] ;
820 -> 824 ;
825 [label="公司规模_150-500人 <= 0.5\nsquared_error = 0.0\nsamples = 3\nvalue = 2.422", fillcolor="#eda978"] ;
785 -> 825 ;
826 [label="squared_error = 0.0\nsamples = 1\nvalue = 2.418", fillcolor="#efb083"] ;
825 -> 826 ;
827 [label="squared_error = 0.0\nsamples = 2\nvalue = 2.423", fillcolor="#eca572"] ;
825 -> 827 ;
828 [label="公司规模_500-1000人 <= 0.5\nsquared_error = 0.0\nsamples = 4\nvalue = 2.423", fillcolor="#eda774"] ;
784 -> 828 ;
829 [label="squared_error = 0.0\nsamples = 3\nvalue = 2.422", fillcolor="#eda775"] ;
828 -> 829 ;
830 [label="squared_error = -0.0\nsamples = 1\nvalue = 2.423", fillcolor="#eca572"] ;
828 -> 830 ;
831 [label="squared_error = -0.0\nsamples = 1\nvalue = 2.428", fillcolor="#eb9c63"] ;
783 -> 831 ;
832 [label="公司类型_外资（欧美） <= 0.5\nsquared_error = 0.0\nsamples = 3\nvalue = 2.424", fillcolor="#eca470"] ;
782 -> 832 ;
833 [label="公司规模_150-500人 <= 0.5\nsquared_error = 0.0\nsamples = 2\nvalue = 2.428", fillcolor="#eb9c63"] ;
832 -> 833 ;
834 [label="squared_error = 0.0\nsamples = 1\nvalue = 2.428", fillcolor="#eb9c63"] ;
833 -> 834 ;
835 [label="squared_error = 0.0\nsamples = 1\nvalue = 2.428", fillcolor="#eb9c63"] ;
833 -> 835 ;
836 [label="squared_error = 0.0\nsamples = 1\nvalue = 2.416", fillcolor="#efb488"] ;
832 -> 836 ;
837 [label="squared_error = -0.0\nsamples = 1\nvalue = 2.43", fillcolor="#ea985d"] ;
781 -> 837 ;
838 [label="公司类型_民营 <= 0.5\nsquared_error = 0.0\nsamples = 2\nvalue = 2.429", fillcolor="#ea9a60"] ;
780 -> 838 ;
839 [label="squared_error = 0.0\nsamples = 1\nvalue = 2.43", fillcolor="#ea975c"] ;
838 -> 839 ;
840 [label="squared_error = -0.0\nsamples = 1\nvalue = 2.428", fillcolor="#eb9c63"] ;
838 -> 840 ;
841 [label="squared_error = -0.0\nsamples = 1\nvalue = 2.434", fillcolor="#e89050"] ;
779 -> 841 ;
842 [label="squared_error = 0.0\nsamples = 1\nvalue = 2.435", fillcolor="#e88d4c"] ;
778 -> 842 ;
843 [label="squared_error = -0.0\nsamples = 1\nvalue = 2.437", fillcolor="#e78946"] ;
777 -> 843 ;
844 [label="squared_error = 0.0\nsamples = 1\nvalue = 2.438", fillcolor="#e68641"] ;
776 -> 844 ;
845 [label="公司规模_5000-10000人 <= 0.5\nsquared_error = 0.0\nsamples = 52\nvalue = 2.411", fillcolor="#f2be99"] ;
675 -> 845 ;
846 [label="地区_二线 <= 0.5\nsquared_error = 0.0\nsamples = 50\nvalue = 2.41", fillcolor="#f2c09c"] ;
845 -> 846 ;
847 [label="公司标签_餐饮业 <= 0.5\nsquared_error = 0.0\nsamples = 44\nvalue = 2.412", fillcolor="#f1be98"] ;
846 -> 847 ;
848 [label="公司标签_服装/纺织/皮革 <= 0.5\nsquared_error = 0.0\nsamples = 43\nvalue = 2.412", fillcolor="#f1bd97"] ;
847 -> 848 ;
849 [label="公司规模_少于50人 <= 0.5\nsquared_error = 0.0\nsamples = 42\nvalue = 2.412", fillcolor="#f1bd98"] ;
848 -> 849 ;
850 [label="公司标签_快速消费品(食品、饮料、化妆品) <= 0.5\nsquared_error = 0.0\nsamples = 40\nvalue = 2.412", fillcolor="#f1bd97"] ;
849 -> 850 ;
851 [label="公司标签_原材料和加工 <= 0.5\nsquared_error = 0.0\nsamples = 38\nvalue = 2.412", fillcolor="#f1bc96"] ;
850 -> 851 ;
852 [label="公司标签_建筑/建材/工程 <= 0.5\nsquared_error = 0.0\nsamples = 33\nvalue = 2.413", fillcolor="#f1bb95"] ;
851 -> 852 ;
853 [label="公司标签_电子技术/半导体/集成电路 <= 0.5\nsquared_error = 0.0\nsamples = 31\nvalue = 2.412", fillcolor="#f1bc95"] ;
852 -> 853 ;
854 [label="公司规模_500-1000人 <= 0.5\nsquared_error = 0.0\nsamples = 29\nvalue = 2.412", fillcolor="#f1bc96"] ;
853 -> 854 ;
855 [label="公司标签_教育/培训/院校 <= 0.5\nsquared_error = 0.0\nsamples = 23\nvalue = 2.412", fillcolor="#f1bd98"] ;
854 -> 855 ;
856 [label="公司规模_50-150人 <= 0.5\nsquared_error = 0.0\nsamples = 21\nvalue = 2.412", fillcolor="#f1bd97"] ;
855 -> 856 ;
857 [label="公司标签_物业管理/商业中心 <= 0.5\nsquared_error = 0.0\nsamples = 7\nvalue = 2.411", fillcolor="#f2bf9b"] ;
856 -> 857 ;
858 [label="公司标签_制药/生物工程 <= 0.5\nsquared_error = 0.0\nsamples = 6\nvalue = 2.409", fillcolor="#f3c3a1"] ;
857 -> 858 ;
859 [label="地区_三线 <= 0.5\nsquared_error = 0.0\nsamples = 4\nvalue = 2.411", fillcolor="#f2be99"] ;
858 -> 859 ;
860 [label="公司标签_酒店/旅游 <= 0.5\nsquared_error = 0.0\nsamples = 2\nvalue = 2.414", fillcolor="#f1b991"] ;
859 -> 860 ;
861 [label="squared_error = 0.0\nsamples = 1\nvalue = 2.416", fillcolor="#efb488"] ;
860 -> 861 ;
862 [label="squared_error = 0.0\nsamples = 1\nvalue = 2.411", fillcolor="#f2be99"] ;
860 -> 862 ;
863 [label="squared_error = -0.0\nsamples = 2\nvalue = 2.409", fillcolor="#f3c3a1"] ;
859 -> 863 ;
864 [label="地区_三线 <= 0.5\nsquared_error = 0.0\nsamples = 2\nvalue = 2.404", fillcolor="#f5ccb0"] ;
858 -> 864 ;
865 [label="squared_error = 0.0\nsamples = 1\nvalue = 2.409", fillcolor="#f3c3a1"] ;
864 -> 865 ;
866 [label="squared_error = 0.0\nsamples = 1\nvalue = 2.4", fillcolor="#f6d5be"] ;
864 -> 866 ;
867 [label="squared_error = 0.0\nsamples = 1\nvalue = 2.422", fillcolor="#eda978"] ;
857 -> 867 ;
868 [label="公司标签_制药/生物工程 <= 0.5\nsquared_error = 0.0\nsamples = 14\nvalue = 2.413", fillcolor="#f1bb94"] ;
856 -> 868 ;
869 [label="地区_一线 <= 0.5\nsquared_error = 0.0\nsamples = 5\nvalue = 2.409", fillcolor="#f2c29f"] ;
868 -> 869 ;
870 [label="公司标签_机械/设备/重工 <= 0.5\nsquared_error = 0.0\nsamples = 4\nvalue = 2.408", fillcolor="#f3c4a3"] ;
869 -> 870 ;
871 [label="公司标签_物业管理/商业中心 <= 0.5\nsquared_error = 0.0\nsamples = 3\nvalue = 2.407", fillcolor="#f3c6a6"] ;
870 -> 871 ;
872 [label="squared_error = 0.0\nsamples = 2\nvalue = 2.407", fillcolor="#f3c6a6"] ;
871 -> 872 ;
873 [label="squared_error = 0.0\nsamples = 1\nvalue = 2.407", fillcolor="#f3c6a6"] ;
871 -> 873 ;
874 [label="squared_error = -0.0\nsamples = 1\nvalue = 2.411", fillcolor="#f2be99"] ;
870 -> 874 ;
875 [label="squared_error = -0.0\nsamples = 1\nvalue = 2.414", fillcolor="#f1b992"] ;
869 -> 875 ;
876 [label="squared_error = -0.0\nsamples = 9\nvalue = 2.415", fillcolor="#f0b78e"] ;
868 -> 876 ;
877 [label="公司规模_50-150人 <= 0.5\nsquared_error = 0.0\nsamples = 2\nvalue = 2.408", fillcolor="#f3c4a3"] ;
855 -> 877 ;
878 [label="squared_error = 0.0\nsamples = 1\nvalue = 2.416", fillcolor="#efb488"] ;
877 -> 878 ;
879 [label="squared_error = -0.0\nsamples = 1\nvalue = 2.4", fillcolor="#f6d5be"] ;
877 -> 879 ;
880 [label="公司标签_机械/设备/重工 <= 0.5\nsquared_error = 0.0\nsamples = 6\nvalue = 2.414", fillcolor="#f0b890"] ;
854 -> 880 ;
881 [label="公司标签_教育/培训/院校 <= 0.5\nsquared_error = 0.0\nsamples = 5\nvalue = 2.414", fillcolor="#f1b991"] ;
880 -> 881 ;
882 [label="公司标签_物业管理/商业中心 <= 0.5\nsquared_error = 0.0\nsamples = 4\nvalue = 2.413", fillcolor="#f1bb94"] ;
881 -> 882 ;
883 [label="地区_一线 <= 0.5\nsquared_error = 0.0\nsamples = 3\nvalue = 2.412", fillcolor="#f1bc95"] ;
882 -> 883 ;
884 [label="squared_error = 0.0\nsamples = 1\nvalue = 2.412", fillcolor="#f1bc95"] ;
883 -> 884 ;
885 [label="squared_error = 0.0\nsamples = 2\nvalue = 2.412", fillcolor="#f1bc95"] ;
883 -> 885 ;
886 [label="squared_error = -0.0\nsamples = 1\nvalue = 2.415", fillcolor="#f0b78e"] ;
882 -> 886 ;
887 [label="squared_error = 0.0\nsamples = 1\nvalue = 2.416", fillcolor="#efb488"] ;
881 -> 887 ;
888 [label="squared_error = 0.0\nsamples = 1\nvalue = 2.416", fillcolor="#efb488"] ;
880 -> 888 ;
889 [label="地区_一线 <= 0.5\nsquared_error = 0.0\nsamples = 2\nvalue = 2.416", fillcolor="#f0b48a"] ;
853 -> 889 ;
890 [label="squared_error = 0.0\nsamples = 1\nvalue = 2.415", fillcolor="#f0b58b"] ;
889 -> 890 ;
891 [label="squared_error = 0.0\nsamples = 1\nvalue = 2.416", fillcolor="#efb488"] ;
889 -> 891 ;
892 [label="地区_三线 <= 0.5\nsquared_error = 0.0\nsamples = 2\nvalue = 2.416", fillcolor="#f0b48a"] ;
852 -> 892 ;
893 [label="squared_error = 0.0\nsamples = 1\nvalue = 2.409", fillcolor="#f3c3a1"] ;
892 -> 893 ;
894 [label="squared_error = 0.0\nsamples = 1\nvalue = 2.423", fillcolor="#eca572"] ;
892 -> 894 ;
895 [label="公司规模_150-500人 <= 0.5\nsquared_error = 0.0\nsamples = 5\nvalue = 2.41", fillcolor="#f2c19d"] ;
851 -> 895 ;
896 [label="地区_三线 <= 0.5\nsquared_error = 0.0\nsamples = 4\nvalue = 2.408", fillcolor="#f3c4a2"] ;
895 -> 896 ;
897 [label="squared_error = 0.0\nsamples = 2\nvalue = 2.411", fillcolor="#f2be99"] ;
896 -> 897 ;
898 [label="squared_error = 0.0\nsamples = 2\nvalue = 2.406", fillcolor="#f4caab"] ;
896 -> 898 ;
899 [label="squared_error = -0.0\nsamples = 1\nvalue = 2.416", fillcolor="#efb488"] ;
895 -> 899 ;
900 [label="squared_error = -0.0\nsamples = 2\nvalue = 2.406", fillcolor="#f4caab"] ;
850 -> 900 ;
901 [label="地区_三线 <= 0.5\nsquared_error = 0.0\nsamples = 2\nvalue = 2.405", fillcolor="#f4caac"] ;
849 -> 901 ;
902 [label="squared_error = 0.0\nsamples = 1\nvalue = 2.402", fillcolor="#f6d1b7"] ;
901 -> 902 ;
903 [label="squared_error = 0.0\nsamples = 1\nvalue = 2.409", fillcolor="#f3c3a1"] ;
901 -> 903 ;
904 [label="squared_error = 0.0\nsamples = 1\nvalue = 2.423", fillcolor="#eca572"] ;
848 -> 904 ;
905 [label="squared_error = 0.0\nsamples = 1\nvalue = 2.395", fillcolor="#f9e0ce"] ;
847 -> 905 ;
906 [label="公司规模_500-1000人 <= 0.5\nsquared_error = 0.0\nsamples = 6\nvalue = 2.403", fillcolor="#f5d0b5"] ;
846 -> 906 ;
907 [label="公司类型_民营 <= 0.5\nsquared_error = 0.0\nsamples = 4\nvalue = 2.398", fillcolor="#f7dac4"] ;
906 -> 907 ;
908 [label="公司类型_已上市 <= 0.5\nsquared_error = 0.0\nsamples = 2\nvalue = 2.394", fillcolor="#f9e2d2"] ;
907 -> 908 ;
909 [label="squared_error = 0.0\nsamples = 1\nvalue = 2.392", fillcolor="#fae5d6"] ;
908 -> 909 ;
910 [label="squared_error = -0.0\nsamples = 1\nvalue = 2.395", fillcolor="#f9e0ce"] ;
908 -> 910 ;
911 [label="squared_error = 0.0\nsamples = 2\nvalue = 2.402", fillcolor="#f6d1b7"] ;
907 -> 911 ;
912 [label="公司标签_新能源 <= 0.5\nsquared_error = 0.0\nsamples = 2\nvalue = 2.412", fillcolor="#f1bd97"] ;
906 -> 912 ;
913 [label="squared_error = 0.0\nsamples = 1\nvalue = 2.416", fillcolor="#efb488"] ;
912 -> 913 ;
914 [label="squared_error = 0.0\nsamples = 1\nvalue = 2.407", fillcolor="#f3c6a6"] ;
912 -> 914 ;
915 [label="squared_error = -0.0\nsamples = 2\nvalue = 2.428", fillcolor="#eb9c63"] ;
845 -> 915 ;
916 [label="公司类型_国企 <= 0.5\nsquared_error = 0.0\nsamples = 44\nvalue = 2.427", fillcolor="#eb9e67"] ;
0 -> 916 [labeldistance=2.5, labelangle=-45, headlabel="False"] ;
917 [label="公司标签_物业管理/商业中心 <= 0.5\nsquared_error = 0.0\nsamples = 43\nvalue = 2.427", fillcolor="#eb9d65"] ;
916 -> 917 ;
918 [label="学历要求_本科 <= 0.5\nsquared_error = 0.0\nsamples = 42\nvalue = 2.428", fillcolor="#eb9c63"] ;
917 -> 918 ;
919 [label="公司标签_多元化业务集团公司 <= 0.5\nsquared_error = 0.0\nsamples = 4\nvalue = 2.418", fillcolor="#efb185"] ;
918 -> 919 ;
920 [label="学历要求_硕士 <= 0.5\nsquared_error = 0.0\nsamples = 3\nvalue = 2.414", fillcolor="#f0b890"] ;
919 -> 920 ;
921 [label="公司规模_500-1000人 <= 0.5\nsquared_error = 0.0\nsamples = 2\nvalue = 2.415", fillcolor="#f0b58b"] ;
920 -> 921 ;
